0.0432413 0.00103375 -0.291285 0.162946 -0.0594494 -0.0511918 -0.0482572 -0.0143982 0.261867 0.326684 0.0062603 0.105983 0.0125066 0.0726023 0.210573 0.214305 0.0629259 0.00713259 0.211489 0.0990156 0.167188 0.136243 -0.115236 0.0674884 0.156829 0.384063 0.379216 0.129335 -0.0822775 0.221236 0.116023 0.145601 0.0143237 -0.172441 -0.0257146 -0.172191 0.0776274 -0.0760338 -0.295511 0.0643987 -0.0147566 -0.160591 -0.0979902 -0.220627 -0.147791 -0.0754611 -0.192455 0.102962 -0.199274 0.07499 -0.184539 0.27478 0.29455 -0.242807 -0.0982242 -0.0637391 0.0625071 0.274609 -0.168829 -0.104226 -0.126738 0.104019 0.0495543 -0.0401475 0.222563 -0.372159 -0.22839 0.118404 -0.188233 0.355167 -0.240814 -0.153719 0.179293 -0.0107078 0.336334 0.0873488 -0.162581 -0.0145714 0.0651909 -0.0608982 0.198391 -0.0105724 -0.140962 -0.0188354 -0.160209 0.350977 0.169296 -0.20972 -0.156714 -0.370781 0.375026 -0.0992887 -0.0318019 0.0164947 -0.285072 0.304314 0.17539 0.0173054 0.0766659 -0.252478 0.113189 -0.0455168 0.261261 0.167575 0.263586 0.0261083 -0.0111789 0.213629 0.112201 -0.101485 -0.012468 0.107101 -0.0993331 0.000759153 -0.120899 -0.00814125 -0.110504 -0.20416 -0.0392307 -0.192402 -0.103835 -0.21457 -0.125872 -0.293173 -0.244169 -0.265167 -0.0401459 -0.210108 -0.276654 -0.301255 -0.0135045 -0.103379 -0.0500321 0.0760467 -0.125219 0.032431 -0.0581825 -0.0263305 0.0682801 -0.0944883 -0.0720083 -0.134673 -0.147125 0.108654 0.115327 0.0939292 0.0152274 -0.230221 -0.0383091 -0.225703 -0.0513638 0.0128591 0.0476455 -0.0768082 0.126793 0.0752971 0.0589918 -0.134074 0.0410166 -0.0783314 -0.226051 -0.0842914 0.426684 -0.05014 -0.220976 -0.0461249 0.0629787 -0.173373 0.0966098 0.107643 0.107971 -0.106375 -0.164036 0.160562 0.276181 0.0429989 -0.159223 -0.198166 -0.16075 -0.299727 -0.318747 0.174146 -0.315618 -0.216547 0.151501 -0.0421503 -0.282295 -0.207329 -0.192292 0.0534549 -0.202514 -0.151921 0.110497 0.00849441 0.0346266 0.0634121 -0.0996256 0.0880206 -0.0900608 0.0623635 -0.148194 0.129692 -0.0244463 0.166834 0.174538 -0.00639293 0.193087 -0.110113 -0.220447 0.149608 -0.264519 -0.308412 -0.169955 -0.034287 0.124849 -0.0693547 0.475133 0.113053 0.208976 -0.107423 0.219415 -0.169634 0.126546 0.0948104 -0.0970565 -0.168309 -0.409202 -0.182931 0.242151 -0.0976379 0.00049348 0.123356 0.116636 -0.0615998 0.0864369 0.0976048 0.000868411 -0.26334 0.0873751 -0.167802 0.0216967 -0.0550405 0.095879 -0.192588 0.0344568 0.18482 0.136531 0.11215 0.0804123 -0.059928 -0.111696 -0.234006 -0.494633 -0.679938 -0.151828 0.210562 0.481231 0.347787 0.015212 0.0126871 -0.0832428 -0.123751 -0.14865 -0.133631 -0.21573 -0.180308 -0.412662 -0.0089084 0.158759 0.0769833 0.17429 0.12659 0.139858 0.372119 -0.0314389 -0.131452 0.201296 -0.304362 0.112779 -0.419214 -0.642099 0.004538 -0.1256 -0.621282 -0.198839 -0.0511219 -0.360343 0.0871556 0.287253 -0.101313 -0.274004 -0.111455 -0.107509 -0.139523 -0.449305 -0.445445 -0.0408403 -0.699473 -0.163384 0.203443 0.232131 0.288977 0.229186 -0.278799 -0.350782 -0.134937 -0.120915 -0.342502 -0.142813 -0.0841998 0.0379028 0.210095 0.0884397 0.204499 0.320082 -0.217482 -0.14172 0.0136571 0.223891 0.0168411 0.230307 0.141824 -0.206967 0.0570237 0.356247 -0.389712 -0.110016 -0.0378312 -0.0766539 0.269067 -0.138749 -0.107021 0.0705406 0.00743474 -0.0643777 0.0662347 0.196617 -0.27302 -0.725959 0.0910067 -0.144321 -0.232307 -0.11156 -0.736191 -0.0144101 -0.420693 -0.0784907 -0.106695 -0.00707885 -0.225655 -0.507079 0.176959 0.0579284 -0.576056 0.0787022 0.0356537 0.092034 -0.0142349 -0.0336893 -0.125493 0.113146 0.20413 0.132706 -0.0306506 -0.256258 0.0239273 0.131581 -0.100617 0.0761871 -0.0329559 0.192528 -0.0602917 0.197467 0.181557 0.120169 0.104332 0.283841 -0.118077 -0.139497 0.155362 -0.324477 -0.0432219 0.0798252 -0.125249 -0.0823964 -0.214401 0.0311199 0.0702948 -0.248587 -0.112904 -0.0347453 0.124927 0.078444 -0.132189 0.101316 -0.116192 0.0503026 0.0454693 0.0683348 -0.126014 -0.0448468 -0.413842 -0.13529 -0.00284226 -0.0195506 -0.434054 0.267096 -0.218724 0.115393 -0.611042 -0.058755 -0.209388 -0.108965 -0.00315491 0.00197986 -0.157878 0.0477533 -0.485473 -0.354816 -0.154929 -0.0285344 0.0976516 -0.241804 0.0118054 0.0086854 0.0798114 -0.0707482 -0.0737598 0.120883 -0.0346815 -0.0326003 0.0285399 0.160908 0.0847437 -0.072667 0.0578567 0.179448 0.0629622 -0.133328 -0.145146 0.150086 -0.0385359 0.143837 -0.0896617 -0.267743 0.112166 0.0397857 -0.122898 -0.150172 -0.256901 0.0763667 0.0431354 -0.0492979 -0.0703301 -0.123206 -0.102204 0.0168364 0.00409665 0.0378674 0.108858 0.0285874 -0.0433818 0.234998 0.031903 -0.0104665 -0.00433227 0.16966 0.14755 0.116287 0.0740818 0.0124485 -0.16473 0.21007 0.0946109 -0.0164059 0.160303 -0.128706 0.161789 -0.117504 -0.0977168 0.189047 0.0263609 0.148576 0.125347 -0.124951 -0.165747 0.119912 0.0376448 0.015895 -0.287095 -0.572101 -0.277588 -0.533787 -0.125179 -0.114366 -0.200787 0.00606005 -0.0407373 -0.0591119 0.0721978 -0.809293 0.272841 -0.117912 -0.531753 0.189859 -0.336801 -0.222745 -0.056595 -0.424615 0.0774992 -0.550516 -0.0310122 -0.186769 0.00741995 -0.151984 0.066038 -0.238246 -0.357604 -0.0504735 -0.304813 0.019726 0.355888 -0.194726 0.125617 0.229289 -0.0316643 -0.102308 -0.0802495 -0.0265122 0.0463601 0.143519 0.15641 -0.0809527 0.218568 0.0447185 -0.200598 -0.106512 0.186895 0.0386704 0.00055183 -0.140236 0.224467 0.0507645 -0.164907 0.0231563 0.105719 -0.192321 -0.229785 -0.092225 0.321374 -0.188787 -0.147427 -0.117697 -0.102906 -0.536446 -0.106595 -0.16475 -1.01118 -0.0610802 -0.132873 -0.442425 0.113045 0.161732 0.134755 -0.0738813 -0.0690057 0.111401 -0.119946 -0.254349 0.0850014 -0.0779354 0.140716 0.0723251 -0.248619 0.12578 -0.168882 -0.0218712 0.0921984 0.0968993 -0.0849567 0.250112 0.0315046 -0.0985169 0.257189 0.120082 -0.287244 -0.117744 -0.031645 0.0078402 0.13714 0.054966 -0.109572 -0.106473 -0.227626 -0.0488903 -0.0826253 0.246663 -0.341851 -0.260214 -0.273146 -0.150629 -0.141607 -0.103969 0.145691 -0.0247003 0.0754203 0.221409 0.204663 -0.00683708 0.0246036 -0.033172 0.0734456 -0.11001 -0.232355 -0.0275975 -0.186014 -0.12297 -0.0100764 -0.402457 -0.482158 -0.088266 -0.332821 -0.290589 -0.0511742 0.0406336 -0.0358124 -0.164023 0.000789493 0.0151092 0.0305659 0.259493 0.349965 0.227751 -0.034505 -0.408109 -0.0572667 -0.129561 -0.0832648 -0.196736 0.345093 0.222515 0.258603 0.170454 0.0230309 -0.265146 -0.0760806 -0.1155 0.145659 0.0117341 0.0546544 0.116779 -0.277432 -0.0256683 0.226572 -0.19982 0.0177309 0.109201 0.0352583 0.0981961 0.0551424 0.0776894 -0.0990227 -0.133916 0.21709 -0.292932 -0.226035 0.124805 -0.0461647 -0.385049 0.149301 0.0520999 0.0119221 0.293211 0.0604368 0.0964201 0.0730765 -0.0155307 0.0144232 0.100864 -0.124691 0.0632425 0.195742 -0.189137 -0.12751 0.0336679 -0.164117 0.148308 0.0463832 -0.158206 0.130766 0.0766082 -0.0712083 0.104365 0.122583 -0.100261 -0.209132 0.0976375 -0.0927912 0.239461 -0.0540166 -0.126391 0.0602756 0.11988 -0.0568892 -0.0743309 -0.393369 -0.485339 -0.498336 0.261937 -0.208394 -0.0983029 -0.270695 0.0614176 0.0967398 0.0968085 0.027124 -0.28877 0.267802 -0.107348 -0.108896 0.0825579 -0.374236 -0.250035 -0.377019 -0.359575 -0.492618 -0.480939 -0.859955 -0.523526 0.237448 0.0727829 -0.468252 -0.0897839 -0.12585 -0.255308 0.153152 -0.0821649 -0.0779341 0.0342824 0.261719 0.181351 0.192523 0.109946 0.210975 -0.181161 -0.107327 0.015764 -0.186899 -0.0325058 0.22132 -0.403058 -0.218523 -0.146211 0.156118 0.132249 0.0426248 0.138671 0.169924 0.12002 0.0803549 -0.433331 -0.113654 -0.220469 -0.793868 -0.0530153 -0.365536 0.0962798 0.207939 -0.500415 -0.227501 -0.0216383 0.114557 -0.159787 -0.17 0.0673224 0.10855 0.0741783 0.0314043 -0.252822 -0.201238 0.0767342 -0.133942 -0.0512546 -0.0626254 0.0734869 0.243746 0.0182081 -0.0720425 -0.0663879 -0.374132 -0.125719 -3.43127e-06 -0.169666 -0.119829 -0.108884 0.356509 0.0436115 0.184073 -0.0475929 0.0388835 -0.0194697 -0.0691305 -0.110667 0.09815 0.210071 0.253158 0.331382 0.255395 0.242161 -0.0175594 0.367676 0.39698 0.196845 0.0384939 0.323132 0.484292 0.144343 0.108825 0.311964 -0.0838437 -0.0870703 0.0724637 -0.17017 -0.108145 -0.0305957 0.021405 -0.106778 -0.0870466 0.148857 -0.0230151 0.0818835 0.092866 0.130415 -0.0535011 0.138829 0.0987442 -0.163214 0.170572 0.122536 0.0429607 -0.133809 0.0955445 0.0421311 -0.136708 -0.0421498 0.064895 0.0959532 0.107634 -0.0431968 -0.122866 -0.170411 0.118764 -0.420302 0.211705 -0.00761476 0.324845 -0.280299 -0.0785418 0.0312072 0.112793 0.0834967 0.0119145 -0.00366312 0.0272716 -0.116646 -0.118959 -0.0586906 -0.103536 0.0108841 0.0373955 -0.345352 -0.697265 -0.5696 0.177102 -1.13046e-05 0.00348926 -0.0653349 0.0531858 0.298783 0.220059 -0.217647 -0.175696 0.0380375 0.10637 0.289826 -0.260256 0.0955766 0.0543349 -0.317682 0.212543 0.06819 -0.120391 -0.145071 0.0640489 -0.159689 -0.272894 -0.101564 -0.0943182 -0.289804 -0.15585 0.159576 -0.224642 0.154309 -0.0066452 0.180877 0.0537886 -0.100264 0.10721 -0.05239 0.137041 0.166189 0.115961 -0.086466 0.122622 0.0760204 0.0901107 0.0587019 -0.288597 0.231021 0.172799 0.36314 0.0811475 0.142183 0.327586 0.0984341 0.0543816 0.0189305 0.0639735 -0.154214 -0.0884523 -0.0668883 -0.130555 0.0153023 0.0367546 -0.0679256 -0.10119 -0.0435072 -0.0778329 -0.0344566 0.0194152 -0.0557614 -0.123965 -0.0568656 0.0304508 0.0583609 0.106309 -0.128773 -0.0606187 0.0562891 0.112649 0.0979734 -0.0501586 -0.0363739 -0.0590354 -0.0959527 -0.1146 -0.15256 0.0485677 0.106875 0.0696659 -0.112845 0.0457235 -0.109795 -0.0701819 0.00388656 0.0265397 -0.0579211 -0.0880741 0.0952436 -0.0780647 -0.00540611 -0.043489 -0.0670037 -0.0480831 0.0473117 0.0734178 -0.023715 -0.0817625 -0.105438 0.101825 0.108863 -0.0117646 0.0413868 0.0458294 -0.0801533 0.0693455 -0.0617982 0.0408532 -0.0306081 -0.0949087 -0.148758 -0.138408 -0.0921255 -0.0668614 0.0295107 -0.0754501 -0.00689158 0.071852 0.0909717 -0.145329 -0.128452 -0.0942779 -0.0633829 -0.121734 0.0446691 -0.0693737 -0.142608 0.0266218 -0.0712361 -0.0293363 0.0237483 -0.0178905 -0.095577 0.0378388 -0.0380416 0.104288 0.105682 -0.150617 -0.0293864 -0.134637 -0.0442757 -0.120817 -0.00763831 0.0316373 0.0716352 -0.0821656 -0.0201989 0.0597495 -0.0743975 0.0210396 -0.114059 -0.0588938 0.238459 -0.0429082 -0.00771337 0.253561 0.0975553 0.134951 0.208219 -0.0398146 0.172525 0.36216 0.0258078 0.034961 -0.350093 -0.052496 -0.102023 -0.123349 -0.0641669 -0.624698 -0.311601 -0.228568 -0.62508 0.00351517 -0.18646 0.234118 0.0235918 -0.447118 -0.220057 -0.0840998 -0.104715 0.111 0.0270041 0.141825 -0.00434768 0.131589 -0.0465714 0.116855 0.266221 0.0129792 0.0177895 0.142849 0.109536 -0.0604994 0.129469 -0.11198 0.0263795 -0.0350578 -0.114783 -0.144461 0.11708 -0.166374 0.0278449 0.0973644 -0.111815 0.00742286 0.105983 -0.120974 0.222986 -0.28447 0.050966 -0.0823822 -0.185845 -0.214905 -0.112446 -0.123476 0.0655628 0.0159149 -0.249753 -0.0354137 0.0235487 -0.0850944 -0.00120081 0.25533 0.324827 -0.0459838 -0.376335 0.357368 -0.0838693 0.0714316 0.0968139 -0.16336 0.182758 -0.0301294 0.0735115 0.107818 0.0611308 0.0344717 -0.0941024 0.105982 -0.00612442 -0.0859478 0.0144873 -0.0103284 -0.023881 -0.42396 -0.485477 -0.121839 0.262384 -0.093086 -0.0309696 0.117657 0.207509 0.216002 -0.240479 0.0905276 0.282835 -0.331493 -0.510721 -0.190481 0.0278903 0.0792993 -0.0970358 -0.0411864 0.108458 -0.0806075 0.202355 0.315473 0.179697 -0.0842251 -0.0430691 0.0920333 -0.143752 -0.211782 -0.149986 -0.0589786 -0.317017 -0.581643 0.239155 -0.12348 -0.0419845 0.251952 -0.0970133 -0.308438 -0.38785 -0.169 -0.091699 0.242503 -0.197191 -0.100263 0.119272 0.0962489 -0.143879 0.0445004 0.247723 -0.0682106 -0.13149 0.00837798 0.199328 -0.250681 0.0537239 0.375064 -0.0486237 -0.236275 0.400404 -0.0090128 -0.174525 -0.174069 -0.0547129 -0.0144017 -0.111212 -0.0245425 0.126074 0.0399579 0.192811 0.00540205 0.0808274 0.105545 -0.287164 -0.228777 -0.063089 0.1319 -0.326998 0.0339965 -0.0122249 0.164228 0.0738125 0.0489999 0.126871 -0.179822 -0.0617136 0.0956431 0.205821 -0.226322 0.0172152 -0.0862493 -0.163055 0.0394072 0.185515 -0.0500299 0.0836984 0.156336 -0.0622814 -0.0561132 0.291078 0.00412884 0.073011 0.18018 -0.16144 -0.104425 -0.00632324 -0.148897 -0.0260411 -0.646296 -0.578542 -0.330398 0.0919526 -0.192674 -0.436649 0.252796 0.0571362 0.216656 0.166464 -0.227131 0.0468664 0.0427209 -0.00605809 0.0662644 -0.133958 0.0934006 -0.116702 -0.015849 0.2406 0.131576 -0.165442 0.0927347 0.0291469 -0.000450731 0.130295 0.0188626 -0.0140851 -0.178822 0.0700074 -0.402843 -0.288427 0.0568685 0.2113 -0.187634 0.0557656 -0.146976 -0.0427141 -0.0447576 -0.984732 -0.127082 0.301515 0.0689492 -0.286455 -0.117476 -0.153226 0.487768 -0.055144 0.209004 0.251223 0.232871 0.171923 0.0941146 -0.153355 0.0593377 -0.0161586 -0.0385963 0.218638 -0.0264927 0.0848546 -0.134986 -0.199241 0.0552171 -0.134088 0.108003 0.0251856 -0.0584746 0.163899 0.118283 0.112218 -0.292338 0.0717888 -0.033864 -0.0221825 0.0363467 -0.14143 0.25818 0.029988 -0.103726 0.132834 0.167194 -0.0584709 -0.0654759 -0.075241 -0.499641 -0.369439 0.148998 0.108326 0.0656575 -0.508843 -0.0265046 0.0607649 0.0078271 0.169794 -0.0351182 -0.0328584 -0.0329198 -0.297585 0.106745 0.114579 -0.275311 -0.103413 -0.0889816 -0.0388182 -0.107953 0.0704363 0.0653054 -0.0890561 0.226051 -0.00720706 -0.401331 -0.0442459 0.0238942 0.0503986 0.248382 0.156778 0.188986 0.0923144 0.0382744 -0.152651 -0.235546 -0.212855 0.0237504 0.0680191 0.107983 0.00408409 -0.0100195 -0.0980205 -0.0708896 0.19688 0.189623 -0.104649 0.0403832 0.000264252 -0.00777533 -0.0340239 -0.0342456 0.0188513 0.225119 -0.0228714 -0.151242 -0.136872 -0.0114117 0.289701 -0.265912 0.162648 0.0702869 0.21891 0.0781051 0.0277165 -0.123523 0.146583 0.0766237 -0.0564533 0.11163 -0.106468 0.0581824 0.21619 -0.000972525 -0.0586779 -0.0683643 -0.0541499 -0.0252155 0.0731265 0.0440751 0.239925 0.0604251 -0.124704 0.0273435 -0.172409 -0.259402 -0.155888 -0.0560269 0.0640417 0.0663124 -0.103873 -0.0474506 -0.119108 0.211047 -0.0734881 -0.0903875 -0.000204634 0.243266 0.132861 0.10867 -0.105315 -0.278154 0.0928369 -0.0826627 -0.585856 -0.113852 0.0558008 -0.202217 0.229679 -0.0175152 0.116413 0.0139064 -0.211221 0.0792656 0.0124734 0.289338 0.166695 0.251232 -0.00568661 -0.169769 -0.105793 -0.105404 -0.131856 -0.286959 0.149667 0.00239022 -0.207712 0.0419142 -0.17652 0.296452 -0.0150553 0.117588 0.30492 -0.0401379 0.0469791 0.221793 -0.369472 0.101528 -0.101365 -0.0920213 -0.0612885 -0.0862315 0.117734 -0.217664 0.0543249 -0.0630056 0.0297391 0.0485894 -0.030996 0.111502 -0.0620061 0.0658059 0.116093 0.0134108 0.291129 -0.0676083 0.251435 -0.0735473 -0.323416 -0.209496 -0.0037238 -0.401297 -0.0688356 -0.0597504 -0.0720697 0.00309909 -0.0835445 0.189768 -0.0905668 -0.277331 0.159443 -0.215033 0.103658 -0.196268 -0.0295965 0.632662 -0.107321 0.150787 -0.31111 0.0475292 -0.0413692 0.121883 0.00328228 0.117084 -0.134171 0.151803 0.0364635 -0.00972042 0.0454648 0.0299264 0.303537 0.0522741 -0.0391633 -0.0825363 -0.0875855 -0.0294075 0.0666783 0.00692952 -0.0941236 -0.00544619 0.153179 -0.0899004 0.351206 0.129584 0.204028 -0.0479116 -0.148076 -0.522343 -0.161179 0.0465036 0.153149 0.239832 0.0442713 0.0126748 0.0161429 -0.333505 0.036529 0.165451 -0.0756446 0.116802 0.0365192 0.114192 0.142396 -0.417286 0.110208 -0.0441918 0.117131 -0.258626 0.207755 0.111066 0.139892 -0.0861136 -0.0317362 -0.254587 -0.156286 0.0580743 0.30092 0.172243 0.196617 -0.0300593 0.0292133 -0.307878 -0.256135 -0.04369 0.193145 -0.0154624 0.124826 0.311994 0.110388 -0.242918 -0.126687 -0.45787 -0.579996 0.0757125 0.0882465 0.150419 0.142308 -0.0278699 0.167615 0.00682505 0.0766542 0.119952 -0.105209 -0.192061 0.039652 0.15336 0.118553 0.129521 0.173897 -0.332553 -0.0569797 -0.228144 -0.0187352 -0.0195269 0.166932 -0.0692808 0.073049 0.520558 -0.0757849 0.107816 -0.126068 0.231203 -0.126007 -0.164245 0.0362598 0.035205 -0.400372 0.0001326 -0.000214315 -0.243771 -0.102823 -0.191921 0.0420976 0.0442317 0.0713369 0.214253 0.379498 0.134675 0.179995 0.0580867 0.0197581 0.00733448 -0.0816225 -0.0525882 0.0438001 0.0295882 0.101374 -0.0279794 -0.0510925 -0.198495 -0.175403 0.152136 0.0972089 0.0977839 -0.121143 0.00165694 0.166443 -0.157084 0.0784365 -0.0437494 -0.309355 -0.294274 0.198554 -0.210897 -0.432382 0.0721795 -0.22344 -0.0703482 0.0466366 -0.17689 0.323596 0.0780723 -0.0493388 -0.0264251 -0.0723778 0.156733 0.0138364 0.0453618 -0.0656768 -0.145631 0.0378362 0.114943 -0.136966 0.0255763 -0.0866007 -0.112711 -0.0823422 0.172951 0.593578 0.0108858 0.152964 0.158876 0.180412 0.26383 0.00822609 0.232915 -0.0124806 0.0898071 0.222101 -0.480718 -0.124876 -0.297109 0.00367374 -0.136411 -0.0067087 0.0965374 0.0394218 -0.0724536 0.0489736 0.00431635 0.0787125 0.297823 -0.0959627 -0.00324018 0.00725886 -0.0811754 0.0120644 -0.242622 -0.0659214 -0.0587991 0.375418 -0.0302508 -0.0333722 0.116868 -0.278991 -0.04993 -0.0478372 0.361686 -0.0257528 -0.00192166 -0.0714157 -0.0980115 -0.244584 0.197708 -0.154343 0.101951 0.0288349 -0.0747924 0.0646283 0.122812 0.0964541 -0.0481173 -0.153521 0.101536 0.0697998 -0.227139 -0.0231278 -0.117235 -0.0963304 0.197844 0.00217407 -0.0185078 0.111995 -0.102869 0.0636834 0.182937 -0.102835 0.00745011 -0.0484762 0.120115 -0.142545 0.0448711 0.10743 -0.186821 0.0728531 0.12839 0.172493 0.0974025 0.121509 -0.204922 0.0201033 -0.0458804 0.0307171 0.105795 -0.297085 -0.180684 -0.00228649 -0.00364599 -0.0284408 0.171053 0.119567 -0.011191 -0.0128035 0.0246796 -0.0538856 0.15651 0.167136 -0.0671197 -0.00791463 -0.173953 -0.0456312 -0.0556978 0.0525694 -0.0552836 0.105137 0.0409258 -0.0669318 -0.0703087 0.135213 -0.0273409 -0.260161 0.0266964 0.0979619 -0.0094248 -0.157207 -0.105134 -0.159841 -0.209657 0.147878 0.0284919 -0.133378 -0.0454664 0.0441901 -0.0924301 0.0489845 -0.104625 0.0919387 0.0502228 0.0986193 0.101677 0.00904258 -0.0825798 -0.102858 0.10799 -0.0273074 -0.000154473 0.0336697 0.0432113 -0.131663 -0.0753781 -0.132517 -0.10552 0.0926528 -0.128991 0.0204597 0.127238 0.0852566 -0.115546 0.123635 0.0491824 0.0396437 -0.0542513 0.113561 -0.0969866 0.0282375 0.0849063 -0.0811538 -0.0744544 0.0707147 -0.0968742 0.0427014 0.0306059 0.0109248 -0.0815523 0.0787531 -0.112317 -0.0455671 -0.151292 -0.12319 -0.0737299 -0.0315135 -0.0668746 -0.111323 0.0660158 0.0682717 0.0496501 -0.00223879 -0.0666496 -0.106415 0.00801466 0.0252335 -0.143176 -0.0333956 -0.00658968 0.048964 0.0874012 -0.0968962 0.0926056 -0.0690523 -0.0883629 -0.0903551 -0.0318052 -0.0976758 -0.0129254 -0.119921 0.020592 0.0444458 -0.105576 -0.128151 0.00761392 -0.0327329 -0.0762661 -0.0525574 -0.0652297 -0.013897 -0.130889 -0.129622 -0.12539 -0.0669039 -0.0585046 -0.108673 -0.0523383 -0.059321 -0.140628 -0.0344083 -0.0281247 0.0829258 -0.116186 -0.119187 -0.123269 0.0475394 -0.0282249 0.0586363 0.0607532 -0.137252 -0.0509983 -0.0686244 -0.0247228 -0.031494 -0.100165 -0.0790045 0.155785 -0.0778102 0.105556 0.201052 -0.00469803 0.0947505 0.350989 -0.0806114 0.269332 -0.287676 -0.587507 0.0103381 0.124154 -0.163082 -0.259527 -0.525887 -0.214698 0.179502 -0.515512 -0.395135 0.207704 0.35956 -0.0583825 0.00540999 0.00392481 0.0692793 -0.221876 -0.0246874 0.0281425 0.200448 -0.0510766 0.0467472 -0.158735 0.102676 0.0778579 0.0558896 0.0267345 0.172723 0.0429187 -0.0419717 0.0330391 -0.0355762 0.0622995 -0.143532 -0.209349 0.0805016 -0.071898 -0.0810312 -0.127308 -0.112014 0.0587552 0.078453 0.373587 0.335053 -0.0976095 0.0950243 -0.304479 -0.167337 -0.0517785 -0.0803194 -0.018141 -0.0849437 0.210525 -0.21451 -0.48518 0.140837 -0.133334 0.00475423 -0.0236667 -0.00485441 0.238896 0.212714 0.185979 0.100247 0.316878 -0.197637 0.0259559 -0.017864 0.102377 -0.257113 0.0945309 -0.110786 -0.147481 -0.0135121 -0.0622043 -0.00822099 -0.0824715 -0.0142604 0.302245 0.155499 0.272396 0.371696 0.385983 -0.209439 0.0197747 0.0364174 0.0209648 0.140731 0.251245 -0.245487 0.0808862 -0.012176 0.053689 -0.398198 -0.402772 -0.130543 0.126562 -0.0275758 -0.0772071 -0.131682 0.120431 0.0071218 0.231378 0.010152 -0.0576088 -0.0954371 0.118203 0.0601598 0.11715 -0.278904 -0.0140367 -0.00137777 -0.158507 -0.54038 -0.185527 0.298243 -0.0114988 -0.151549 -0.425643 0.215919 0.137222 -0.213727 0.112186 0.376502 -0.166024 -0.0339796 0.00998863 0.248632 0.0386025 -0.102229 0.0343758 -0.0610033 0.106853 -0.126376 0.0757826 0.128712 0.122932 -0.17633 0.242857 -0.0654754 -0.0324018 0.206877 -0.0952647 0.0929428 0.0240612 -0.0505671 -0.0691517 -0.182653 -0.112355 -0.149841 -0.0700987 0.142305 0.000307169 -0.0773793 0.275493 -0.0895863 0.00197663 -0.0904429 -0.284491 -0.42315 0.323449 0.0775345 0.0173616 -0.145063 0.204254 0.0847802 -0.0379314 -0.0149004 0.184429 0.013619 -0.245379 -0.00347008 0.256897 0.147532 0.0652708 0.152414 -0.0173471 -0.0732493 0.158968 -0.00798376 -0.129896 -0.150053 -0.0682583 -0.0447287 -0.254346 0.0977241 0.0798405 -0.295718 0.159263 0.120834 0.185429 -0.145817 -0.158921 0.245478 -0.226032 0.176841 0.307996 -0.120073 0.135112 0.141793 -0.0479968 -0.0732698 -0.0088707 -0.0959008 0.135253 0.0408192 0.0315935 0.0766143 0.0645621 -0.0556383 -0.0655142 0.0275814 0.0907055 -0.0432622 -0.187689 -0.337239 -0.00403314 0.0678564 -0.21692 0.277717 0.0310997 0.128934 0.205201 0.196538 -0.00437754 0.106275 -0.0210063 -0.419378 0.220449 0.362107 0.1435 0.0186413 0.0809641 0.237839 0.109639 -0.130016 0.235617 -0.358082 -0.0562841 0.101519 0.0961601 -0.00673927 0.0821117 -0.383447 0.181116 0.108164 0.176843 0.0736798 -0.302727 0.00344121 0.0298546 -0.251968 0.067155 0.0932189 -0.0980487 0.151811 -0.172124 0.0729488 -0.453918 -0.381524 0.0400151 -0.0724295 -0.014636 0.104572 0.276908 0.129932 0.172639 -0.0448543 0.0454353 0.0615541 0.0263436 0.125068 -0.222964 0.0771339 0.127074 -0.181765 0.00924063 0.0865211 0.0851711 0.123571 -0.295316 0.0508541 -0.209458 -0.090657 0.13811 -0.323067 -0.0337365 0.0244291 -0.00702758 -0.257405 -0.10678 -0.124632 0.140607 -0.154085 0.0709386 0.247014 -0.00215209 -0.0691826 -0.617943 0.0789579 0.00508978 -0.130981 0.0448463 0.0456047 0.0432769 -0.0480955 -0.164057 -0.045094 -0.137984 0.133941 0.0508344 0.023625 0.189706 0.274618 0.101714 -0.104532 0.0244437 0.00144695 -0.038951 -0.044207 0.209653 -0.239624 -0.152114 0.10888 -0.14004 0.140267 -0.0811852 -0.175615 0.336933 -0.0156899 -0.125387 0.0979344 0.392159 0.020833 -0.159371 0.269577 -0.139645 -0.0666386 0.0247431 0.110979 -0.00551469 -0.285979 0.271338 -0.0265037 -0.275746 0.0456754 -0.297068 -0.157219 0.0939276 -0.616112 -0.0387807 0.0717129 -0.100211 0.155782 0.052086 0.264139 -0.00869224 -0.180745 -0.0146892 0.0331243 -0.0173849 -0.142747 -0.103004 -0.0176807 0.169401 -0.0936519 -0.0615786 -0.139616 0.0203974 0.022331 -0.0335868 0.0993386 0.224528 -0.0524556 -0.0610347 -0.164801 -0.211096 0.352495 0.0694553 -0.154767 0.00523474 0.018047 -0.102189 0.342469 0.0952588 -0.318393 0.196839 -0.367439 -0.544042 0.175553 -0.156918 0.129315 -0.0496699 -0.165823 -0.0632455 -0.0381277 0.117425 -0.149136 -0.00101227 0.0227786 0.174722 0.193068 0.105816 -0.33624 -0.157692 0.00534886 -0.80757 0.20283 -0.0973293 0.0206554 -0.038133 -0.0787334 0.0385744 0.0230662 0.249988 0.084753 0.109053 0.192554 0.160848 0.280031 0.0255917 0.248542 -0.117631 -0.14116 0.0937077 -0.135219 -0.010238 0.0623904 -0.414709 -0.266385 -0.0153721 0.0601177 -0.026567 -0.0605066 0.181745 0.204553 -0.138612 -0.208689 -0.216821 -0.138705 -0.26779 -0.0156605 -0.116669 0.0231904 0.368938 0.0320661 0.194198 0.147448 0.0768805 0.00157856 -0.00787342 0.00249707 -0.0520624 -0.108198 0.107635 -0.180773 -0.31318 0.0188491 -0.0791978 0.16394 0.165528 0.0875236 0.21818 0.0896102 0.129947 -0.0752585 0.171963 0.0235761 -0.115937 0.0914322 -0.129465 0.0048892 -0.0606825 -0.0701663 -0.122285 -0.187237 0.0416202 0.10713 -0.0187734 -0.0200021 0.067862 -0.0509536 -0.179576 -0.0950986 -0.0664546 0.149694 -0.226194 0.149663 0.0429212 0.151665 0.185342 0.0899873 -0.0414337 -0.31727 -0.337951 -0.488747 0.113988 -0.0871935 0.28979 0.0956551 0.0151094 -0.00981966 -0.0562737 0.0820796 -0.0350952 -0.00996923 0.0187234 -0.00875375 0.154769 -0.0718442 -0.368368 -0.264975 0.142993 -0.484208 0.19889 -0.132558 0.171177 -0.132265 -0.372136 -0.160632 0.0306032 0.352512 0.152788 0.101449 0.126653 0.264143 0.183471 0.1985 -0.085834 0.0544431 -0.0570891 -0.108944 0.0755372 -0.00477517 -0.062759 0.234845 0.0110616 0.259561 -0.0779061 -0.134493 -0.235572 -0.461575 0.102949 -0.068014 -0.647552 0.221272 0.405023 0.0859852 -0.0026514 0.186874 -0.114547 0.135809 0.245793 -0.102588 -0.129003 -0.045009 0.161086 0.0149411 0.185584 -0.00158193 -0.0821961 0.00708987 0.431916 0.00847559 0.130037 -0.045116 0.229836 0.109805 -0.127744 -0.279788 -0.0793256 -0.202572 -0.0431541 -0.127848 -0.103267 -0.119104 0.0342504 0.0741579 -0.117784 -0.213579 0.040834 -0.0109575 -0.108826 -0.123455 -0.223916 0.0446664 -0.294649 -0.383135 -0.240742 -0.365933 -0.624572 -0.0147718 0.0291036 -0.128039 0.0555903 0.285311 -0.24511 -0.0729797 0.183964 0.0259848 -0.175916 0.179008 0.226915 0.113422 -0.179372 -0.249218 -0.323895 0.435321 -0.0750493 0.0240648 0.0980596 -0.235617 -0.0385599 0.0544238 -0.0956386 -0.0897266 0.0176825 -0.0653882 -0.269961 -0.387247 0.317338 0.196998 -0.283451 -0.249576 0.0813439 -0.00409916 0.181184 0.0613559 0.140972 -0.170463 -0.144094 -0.219596 0.204266 -0.269926 -0.10248 0.154285 -0.315569 -0.0727686 -0.0235555 -0.0898224 0.286951 0.0354422 -0.0488885 0.115825 0.00184889 -0.0717285 -0.0478805 0.119696 0.0506391 -0.571541 -0.0877976 0.0601798 -0.220154 -0.238787 0.0784406 -0.100375 0.00644771 0.170967 -0.413563 0.217214 -0.389622 -0.0929232 0.0124496 0.0875461 0.125008 -0.0316443 -0.0792155 -0.0456564 -0.0377635 0.10982 0.136862 -0.332712 0.151889 0.0417815 0.162107 -0.118413 0.125269 0.00265247 -0.192555 -0.146022 -0.160545 0.0554763 0.0907878 0.0743091 0.124251 0.126877 -0.00579769 -0.232407 -0.0950292 0.138082 -0.121786 0.0508072 0.023499 -0.156743 -0.0914654 0.0444279 -0.063537 -0.137162 -0.0957036 0.126699 0.108689 0.0532499 -0.0332611 0.109343 -0.114408 -0.0812309 0.123185 0.0714514 -0.0908928 0.340438 -0.115224 0.0664954 0.213972 0.161167 -0.0380942 0.00106994 -0.133154 0.149699 -0.0134661 -0.0615761 0.0947442 0.00690264 0.230621 0.0860883 -0.0506282 -0.0944404 -0.107183 0.117421 0.302437 0.154717 -0.0834563 0.0774655 0.0660068 0.0683358 -0.173156 -0.211186 -0.0647355 -0.167223 0.00744654 0.028863 0.262994 -0.115599 -0.188451 0.0223662 0.255159 -0.0232323 -0.0390653 0.297144 -0.0725255 0.14605 -0.0919799 -0.000467565 -0.0685412 0.0652978 -0.00625564 -0.033862 0.00587147 0.24139 0.00514989 -0.151873 -0.000924128 0.140277 0.154705 0.0698771 0.199108 -0.0110704 0.122375 -0.261308 -0.327422 -0.201231 0.137848 -0.103815 0.119873 0.259617 -0.264628 -0.0431 -0.255931 0.265688 -0.389263 -0.181703 0.0233993 -0.124014 -0.013286 0.11404 0.16916 0.0441386 0.0353904 0.219436 0.00579999 -0.0347798 0.212095 -0.0158502 -0.0770015 0.215762 -0.149415 -0.0621804 -0.0333264 0.102008 -0.27524 -0.293292 0.194792 0.0740254 0.0468497 -0.142426 -0.0788658 -0.0177683 -0.0366049 -0.100811 -0.0974098 -0.143511 -0.016056 0.189221 -0.0126992 -0.0780172 -0.00950907 -0.0461879 -0.0636018 -0.0227168 0.154129 -0.299069 -0.0649671 -0.269795 -0.139591 -0.161709 0.0963804 -0.0620572 -0.0617826 -0.00860776 -0.109999 0.0847495 -0.11418 0.218196 0.0866015 0.28783 -0.0100354 0.141164 0.0415945 -0.0594037 -0.460824 -0.105927 -0.206544 -0.382718 0.00405064 0.00623308 -0.0582788 0.18178 0.229857 0.138031 0.146818 0.0699737 0.173997 0.063968 -0.143533 -0.0797978 0.119435 0.101393 0.0393774 -0.0775054 -0.143997 0.0420923 0.283379 -0.116103 0.13503 -0.40446 -0.191323 -0.0960311 -0.00436477 0.0405321 0.326681 0.00218108 0.124116 -0.448798 -0.489354 -0.0897839 0.00568923 0.134531 -0.050549 0.323442 0.0903327 -0.0600181 -0.385942 0.303388 0.0880554 0.0744524 0.0801806 -0.139181 -0.193459 0.0557641 0.115595 0.147946 0.101717 0.00586001 -0.0268769 -0.0870684 -0.0693968 0.17906 0.106655 -0.196605 -0.175343 -0.0612362 0.105012 0.13995 -0.00954709 0.074889 0.122055 0.175153 0.128855 0.0325605 -0.0884741 -0.0331409 -0.127027 -0.210253 -0.067464 -0.00419633 -0.14188 0.0301264 0.0144334 0.083423 -0.0942314 -0.0151202 -0.213731 -0.327725 0.0584704 0.269022 -0.0953199 -0.165562 0.195452 0.115522 0.244345 -0.0830176 0.0205294 -0.0775984 -0.0198583 -0.109272 0.224485 0.0529707 -0.0329488 -0.157808 0.0670408 -0.0845861 0.00692813 -0.0522741 0.0800681 -0.201049 0.207005 0.0273803 -0.0505323 -0.0974084 -0.0629311 0.08204 0.073309 0.0560369 -0.182516 0.0806063 -0.280939 -0.0713492 0.235471 0.178396 0.501506 0.103889 0.124 -0.042033 0.15152 0.0966373 0.164051 -0.0015123 -0.0305903 -0.0512138 -0.0558837 -0.0247825 0.0388049 -0.0397941 -0.171189 0.00860537 0.13741 -0.103791 0.0625748 0.00939107 -0.104771 0.0565412 -0.164907 -0.137786 0.0115772 0.0891022 -0.10034 -0.00283612 0.272075 0.132239 0.026423 -0.0160277 -0.0471069 -0.152367 -0.0293397 0.0435388 -6.09298e-05 0.196048 0.0674813 -0.138564 0.184126 -0.135252 -0.104923 -0.164181 0.060773 0.100815 0.014544 -0.0809452 0.037244 0.0909589 0.0939098 0.117543 0.123479 0.0995265 0.113198 -0.0268583 0.08881 0.213226 0.0625208 -0.132826 0.0469404 -0.157774 0.100467 0.0403266 0.121677 -0.0227931 0.1677 0.178491 -0.0461357 -0.0112108 -0.114226 -0.094461 -0.0811751 0.187101 -0.0447819 -0.21942 0.124326 -0.0364241 -0.131323 0.229924 0.0881622 0.119794 0.162353 -0.0528498 0.122536 -0.0322864 0.083654 -0.0584355 -0.0886606 -0.0328597 0.150284 -0.180095 -0.0615751 -0.0309358 -0.235984 -0.186827 -0.0130431 0.0895403 -0.0143632 0.0170601 -0.320585 -0.240849 0.155902 -0.279149 0.0214466 -0.0669432 0.0382559 0.175384 0.146521 0.0034491 0.140914 -0.0718666 0.0326802 0.019718 0.0226701 0.103075 0.0266532 -0.133388 -0.128822 -0.282175 -0.321701 -0.130205 -0.45057 -0.020237 -0.0998454 -0.322533 -0.388318 -0.334228 -0.374133 -0.109321 0.0907743 -0.3651 -0.118143 0.0098493 -0.160054 -0.0489405 0.0760571 0.249521 0.202148 -0.167816 0.243176 0.164852 0.088887 0.211915 0.0943028 0.420293 0.310487 0.281384 -0.0291539 -0.0682046 -0.0995762 -0.250933 -0.0920058 0.0211685 -0.214249 -0.139068 0.0830681 0.123458 -0.000401169 -0.0201985 0.174836 0.0161133 -0.0882653 -0.20996 0.250884 0.247953 0.00217061 -0.265312 -0.449846 0.036896 -0.429412 0.093331 -0.530412 0.0727431 0.266916 -0.0245248 0.0846334 0.12698 -0.182584 -0.225336 -0.119264 -0.0638129 0.421474 0.32555 0.0738302 0.208523 0.100439 -0.0231729 0.0549989 -0.0102117 -0.077644 -0.111722 0.187263 -0.0247565 -0.368231 0.0132067 0.104276 0.0558615 0.0924773 -0.126594 0.0561281 -0.263115 -0.0294495 0.241468 0.258485 -0.0358531 -0.140355 -0.0403972 0.0743928 -0.034546 -0.204771 0.300827 -0.222548 -0.489677 0.0222226 -0.0772285 -0.396052 0.109249 -0.0362484 -0.0792464 0.0222958 0.114509 0.102643 -0.0241072 -0.0259398 0.0806308 0.170853 0.143953 -0.249101 -0.0933148 0.125709 0.0374128 -0.0245245 0.0694323 0.0361977 -0.176737 0.0400144 0.103019 -0.110991 -0.337571 -0.0413571 -0.328464 -0.0123013 -0.129475 -0.169771 -0.0847081 0.14463 0.068712 0.0930552 0.0848922 0.0238045 0.126714 -0.592111 0.144478 -0.0639702 0.0451047 0.210544 0.162159 -0.145872 -0.0664179 -0.0606588 0.0593805 -0.185615 0.11657 -0.18355 -0.123337 -0.074563 0.140935 0.0558558 0.060771 -0.0326861 0.0676039 0.0566222 0.0246425 0.220668 0.0722915 -0.18577 -0.0254386 0.0576276 0.091603 0.0751896 -0.128025 -0.0123081 0.21101 0.186347 -0.0386069 -0.216888 -0.165046 0.00487358 -0.0915898 0.0512021 0.339848 0.209008 0.00108122 0.0954566 0.160106 -0.0783981 -0.22864 -0.120813 -0.167856 -0.0286515 0.12783 -0.091556 0.0698735 0.175233 -0.0967904 -0.0611525 0.0306391 -0.0674265 -0.0737402 0.222432 0.129083 -0.105066 -0.251354 -0.22192 -0.23805 0.0538341 0.0949961 0.0417966 0.102334 -0.157867 0.109366 -0.413248 0.189954 -0.0608292 0.0871062 0.114861 0.0944785 -0.0580922 0.0243927 0.137122 -0.0957932 0.137295 -0.164107 0.137198 0.0434792 0.011654 -0.140112 -0.13561 0.0497716 0.121981 -0.113753 0.300933 -0.11213 -0.414219 0.313939 -0.48506 -0.321545 0.198349 0.0120511 0.0765275 0.0677063 0.0540751 0.310577 0.041994 0.0196226 -0.063643 -0.0122748 0.176081 0.208505 0.0543294 -0.0988687 0.0219569 -0.265641 0.112732 -0.0948382 -0.101389 0.0819437 0.254635 -0.0254428 0.0849539 -0.101914 0.0744751 0.0378537 0.152617 -0.200588 -0.0172367 -0.182564 0.0290263 -0.0317315 0.278637 -0.195218 -0.319773 0.00480256 -0.039352 -0.0288729 -0.0543554 0.209164 0.0274875 0.0595969 -0.176532 0.0703477 -0.282279 -0.0812078 -0.254187 -0.0940661 0.125646 0.0302349 0.074346 -0.14026 -0.0654616 -0.0873372 -0.013514 0.217133 0.105441 0.0337848 0.12583 0.0387899 0.0968117 0.0237558 -0.094994 -0.079144 0.0673956 -0.129453 -0.145787 0.210433 0.0356588 0.0132099 -0.330771 0.0750404 -0.0219228 0.13075 -0.0979306 -0.138432 0.0214898 0.120533 -0.156795 -0.301096 -0.193552 0.0153703 -0.12655 0.0146466 0.117668 0.221776 0.0390347 -0.0913975 0.0156571 0.18774 0.0546285 0.0292583 0.00471828 0.0962883 0.0686191 0.139138 0.0785957 0.0807419 0.0245929 -0.252522 -0.00225804 -0.187117 -0.336716 -0.419573 0.313595 -0.0231278 0.0575822 0.0526696 -0.0243411 -0.0273912 -0.172088 0.106979 0.137434 -0.188785 0.124615 -0.0398317 -0.0577903 -0.159517 -0.0157772 0.0533756 0.110317 0.126403 0.0602107 -0.0653008 -0.0633259 0.0835058 -0.0313037 -0.104169 0.102583 -0.234165 0.0371021 -0.126999 -0.0162384 0.024446 -0.123145 0.0705659 -0.193373 -0.131889 0.0579684 0.0313404 0.26746 0.0512451 0.0509939 0.286319 0.323808 0.0777186 -0.0133873 -0.052137 -0.172446 0.153223 0.154662 -0.477404 0.065827 0.0305771 -0.132839 -0.24616 0.0486914 -0.158649 0.0954736 0.0240459 0.229562 0.203737 -0.241749 -0.28953 0.225668 -0.0133879 -0.110458 0.101895 0.0288081 0.0349282 -0.0204387 0.0847511 0.0166362 -0.14231 0.00813551 -0.0926409 -0.0322538 -0.0559022 0.139748 -0.0305168 -0.379175 0.0101242 0.0520583 -0.0503278 0.221269 0.245541 -0.0640832 -0.0571585 0.0437002 -0.105568 0.202404 -0.356126 -0.234128 0.143771 -0.0294096 0.151341 0.202328 0.0244532 -0.103431 -0.00660565 0.0397191 0.151053 -0.0619439 0.130537 0.130948 0.150187 -0.0745094 0.129979 -0.0760441 0.0280887 0.391888 0.0805591 0.243455 0.133566 -0.0103245 0.0155593 0.0263935 -0.281505 -0.261445 -0.146531 0.0244786 0.15611 0.119042 -0.181205 -0.0744663 0.118285 0.154662 -0.587673 -0.226192 -0.052838 0.0383066 -0.62403 0.0956839 0.273973 -0.103283 0.255285 -0.0273941 -0.302626 -0.110597 -0.14283 0.0404349 0.0832736 0.474936 0.0572091 0.0972125 0.066465 -0.0426134 0.113066 -0.0987841 0.0849734 -0.25191 0.356773 0.138252 -0.0229324 -0.0418493 0.0853219 0.157956 0.340944 0.136421 -0.199895 -0.0946066 -0.0484522 0.0832381 0.192264 -0.182196 0.194298 -0.320016 0.0652708 0.195024 0.106461 0.0197717 -0.539657 0.0273979 0.103724 -0.123996 -0.23581 -0.126351 0.513365 0.291444 -0.200927 0.0706739 -0.140722 -0.0508951 -0.183789 -0.208101 -0.156733 0.0713892 0.331 0.193642 0.234494 -0.193666 0.182545 -0.18854 -0.019765 -0.0267068 -0.24665 -0.127333 -0.0982304 -0.089203 -0.232058 -0.211811 -0.0186561 -0.170374 0.182316 0.127812 0.128087 0.184543 0.0689364 0.0207128 0.181694 0.21705 0.183998 -0.0741871 -0.331469 0.0612495 0.345595 -0.0642175 -0.247343 -0.148949 -0.334303 -0.260849 0.244465 -0.11156 -0.188316 0.129009 -0.0470477 0.0998309 -0.0596997 -0.319362 0.411923 0.0163498 0.122885 0.101084 -0.15782 0.0579513 -0.0986764 0.188632 -0.15075 -0.0657313 -0.48996 0.144782 -0.132004 -0.195648 0.0823784 0.284555 -0.0787481 0.101018 -0.0313926 0.0467735 -0.108062 -0.180648 -0.239479 -0.0297894 0.195752 -0.135078 -0.171677 0.222412 0.14887 0.0118571 -0.106349 -0.017988 -0.113187 0.0394239 -0.104832 -0.0380881 -0.510889 -0.0788403 -0.210345 0.0745233 0.216075 0.084338 -0.0392431 -0.0677652 -0.305392 0.0865268 0.413231 0.178479 -0.332945 -0.0923838 0.0234605 0.0254658 0.0688076 -0.108391 -0.0906626 -0.0534436 -0.0314071 0.181796 0.121739 -0.0611911 0.0912286 0.21648 0.0732426 -0.0443515 0.159741 -0.274979 -0.158604 0.0919443 -0.109407 -0.325212 0.266961 0.236348 -0.155815 -0.344776 0.137971 0.140207 0.0893467 0.143417 -0.0726297 0.150676 0.582885 -0.231731 -0.229368 0.657411 0.0869845 0.199534 -0.00570453 0.0193239 -0.783006 -0.111844 0.52113 -0.329599 0.23692 0.175588 -0.644383 -0.0998698 -1.40763 -0.385628 -0.78946 0.308026 -1.38371 -0.204067 -0.0535746 0.211012 -0.405339 -0.301246 -0.390728 0.0753839 -0.77956 -0.551588 0.453965 0.900066 -0.961569 0.163204 -0.900928 0.15056 -0.180832 -0.084331 0.0200003 -0.103137 -0.819408 0.844489 -0.0110548 -0.977327 -0.206426 0.692981 -0.199997 -1.478 0.421573 0.119726 -0.473859 0.211284 -0.44811 0.160554 -1.97325 -0.0129047 0.554154 -0.596629 0.161726 -0.121449 0.540727 0.0666427 -0.318316 -0.856663 -0.723689 0.360014 0.106472 -0.642054 0.252735 -0.120795 0.017734 -0.237967 0.0923272 -0.988395 -0.585337 -0.455935 -0.215589 -0.534382 -0.405195 -0.270303 -0.421351 0.236798 0.405668 -0.46835 -0.384453 -0.822426 -0.481692 -0.0120386 0.359097 -1.11493 -0.127698 0.444328 -1.2396 0.00471758 -0.394844 -0.155734 0.149312 0.0120944 -0.355434 -0.222189 -0.0531425 0.166254 -0.0761718 -0.0957755 -0.110613 0.0026868 0.354364 0.0236861 -0.254543 -0.230751 -0.0786746 0.12425 -0.6833 0.109894 -0.156841 0.11611 0.138686 0.100046 -0.240187 0.0261687 0.149995 0.0586349 0.0487539 -0.214887 0.304995 0.138416 0.0467694 -0.315019 -0.0955313 0.0647659 0.111212 -0.113348 -0.239714 0.116473 -0.0233391 -0.0858051 -0.211608 0.117199 -0.264 -0.0496908 0.107408 0.241945 -0.000269911 0.476105 -0.00872495 -0.0964959 0.137539 0.0619831 -0.0831531 0.132418 -0.186288 -0.0936689 -0.144529 0.0955281 0.178933 -0.17533 0.0792606 -0.223789 -0.0778734 0.256781 -0.187291 0.27775 -0.0967316 0.0704464 -0.0369877 0.120364 0.14571 0.00476792 -0.208766 -0.0809277 0.0858528 -0.125537 -0.131086 -0.251953 0.157336 0.234733 -0.410233 -0.10823 0.206794 -0.0354169 -0.141721 0.121328 -0.0244269 -0.0150903 0.108737 0.285494 0.145764 -0.0830958 0.0466202 0.174185 -0.0174495 -0.0974521 -0.128042 0.294645 -0.0971838 0.0918101 -0.164403 0.088148 0.0171313 0.167536 0.127679 -0.105087 -0.120658 -0.0740024 -0.211474 0.187062 -0.196182 0.0862188 0.0454867 0.0149368 -0.0366637 0.064945 0.0122285 0.22334 0.174774 -0.0286228 0.00091716 0.320498 0.145821 -0.054593 0.100046 -0.106635 -0.148699 0.146455 -0.181431 0.0534131 0.256568 0.153326 0.182402 -0.0158227 -0.218316 -0.0174991 -0.0459143 -0.112634 -0.102219 -0.00304599 0.052918 -0.0365239 0.251682 -0.168572 0.148448 -0.0468933 -0.0976852 0.0152105 -0.172782 0.104866 0.185346 -0.15751 0.152988 0.0641729 0.0518654 0.173005 -0.50523 -0.0456417 -0.386723 -0.00625882 0.129323 -0.0930662 0.100994 -0.108639 -0.034385 -0.0966479 0.154309 0.273325 0.189653 -0.0226979 -0.188302 -0.0510348 0.0154467 -0.0624991 -0.0629181 -0.00224124 -0.277998 -0.154135 0.0353665 0.0816265 -0.00198996 -0.0140992 -0.0935153 -0.0571457 0.124275 -0.179421 0.0134356 -0.00202125 -0.118121 -0.305605 -0.00195184 0.021533 0.00276662 0.285237 0.133157 0.0678584 0.250437 0.175268 -0.120188 -0.197854 0.0465689 -0.00393665 -0.100792 -0.229591 -0.32195 -0.228289 -0.322289 0.139572 -0.0878427 0.0411193 -0.174779 0.313124 0.0210043 -0.346846 0.122949 0.297281 -0.1901 -0.00120698 -0.180737 -0.230987 0.122728 -0.266479 -0.167124 0.369946 0.0154363 -0.17035 0.0630285 -0.075653 0.0301998 0.122564 -0.0544023 -0.045213 0.0221918 -0.348177 -0.253042 -0.42167 0.246412 0.173235 0.193228 -0.0472899 0.0263374 0.318032 0.100485 -0.221616 0.0390965 -0.196063 0.0335336 -0.118017 -0.196915 0.248959 -0.0884941 -0.0481077 -0.226377 -0.329625 -0.202086 0.295359 0.00747382 0.0721079 -0.184901 -0.102698 0.165501 -0.00327606 -0.189719 0.0203256 -0.0662217 0.190787 0.0433998 -0.320486 0.222919 0.206152 0.173842 -0.138953 0.316869 0.204993 0.205663 -0.152835 0.155625 -0.200984 -0.26888 0.0199958 -0.276323 0.239107 0.134154 -0.0259161 -0.25558 -0.316007 -0.047178 0.305106 -0.134517 0.111782 -0.0196417 -0.107309 -0.0857572 -0.20605 0.0313034 -0.0262089 0.134568 -0.163254 -0.532523 -0.0233049 0.160378 0.0482383 0.133576 0.252195 -0.268144 -0.120684 -0.0301664 0.246429 0.0553003 0.260558 -0.0216924 -0.247954 -0.0355014 0.0680316 -0.193093 -0.0995077 0.0853221 -0.128617 0.116179 -0.0971961 -0.0800564 0.0730576 0.0301066 0.000450829 -0.14633 0.0900368 -0.0392895 0.0134938 0.204519 0.171524 0.288726 0.122012 -0.0520852 0.0368799 0.201649 -0.0652774 -0.196805 -0.211866 -0.0827627 0.0154035 0.0137321 -0.0417203 0.0581941 -0.2301 0.0143032 -0.139748 -0.0182336 -0.00913706 0.0880527 0.127591 -0.0636652 0.129787 0.307041 -0.202693 -0.0383085 -0.148579 0.288899 -0.130558 0.0503165 0.174168 0.239533 -0.108594 0.353764 -0.1599 0.170427 -0.0476717 0.161467 -0.030002 -0.332031 -0.0276362 -0.0959021 0.134204 -0.232581 -0.0668148 0.271097 0.125126 0.242452 0.0439072 0.259157 -0.196146 -0.101654 -0.134649 -0.12755 -0.339634 -0.788818 0.0691857 -0.591225 0.0720971 0.179947 -0.201768 0.120767 -0.137913 0.478167 -0.78451 0.648005 -0.142554 -0.270393 -0.440829 -0.263688 -0.426162 -0.142778 0.541163 -0.243079 0.26022 0.352021 0.350871 0.390205 0.337067 -0.153854 0.0478878 0.0216079 0.0536799 -0.406311 0.352283 0.00689343 0.470328 -0.164957 -0.527119 -0.782553 0.295364 -0.147213 -0.0767986 -0.173845 -0.0677936 -0.470811 0.565605 0.0429071 0.121675 -0.573874 -0.315198 0.387077 -0.452619 0.279644 0.113476 0.0856303 -0.0042082 0.419568 -0.0206217 -1.36683 0.335319 -1.67412 -0.561818 0.458756 -1.06709 -0.791902 0.499881 -0.212352 -0.358829 -0.516715 -0.061674 -0.207102 -0.315932 -0.011205 -0.0295316 0.386048 -0.0690209 -0.077379 -0.803934 0.499387 -0.309669 -0.41316 -0.695636 -0.462251 -0.821744 0.438688 0.0510715 -0.463377 -0.260498 -0.758095 -0.473271 -0.669813 -0.092966 -0.248731 -1.29595 -0.278145 -1.17768 -0.358782 -0.0023672 -1.22351 0.0937725 0.0287766 0.194109 -0.0422206 -0.0398424 -0.000664323 -0.0859589 -0.0234395 0.206099 -0.161436 0.00602232 -0.401375 -0.102599 -0.16535 0.354679 -0.334619 0.270528 0.248043 0.10867 0.201062 -0.0291685 0.0190783 0.228753 0.156358 0.0813104 0.0866648 -0.0803621 0.0360209 -0.292186 0.0261537 0.184468 -0.0928332 0.021017 0.180383 0.0875845 -0.278178 0.197039 0.0114234 -0.300583 0.102401 -0.06932 -0.155568 -0.115946 0.126028 0.121015 0.224973 -0.181949 -0.00427207 -0.189791 -0.0194433 0.132947 -0.0232304 0.116913 -0.0179725 0.0731896 0.219258 -0.0961863 0.315691 0.120245 -0.130149 -0.02855 -0.499554 -0.081305 0.329109 -0.0423783 0.173943 -0.151693 -0.246878 -0.0504784 0.06292 0.0798465 0.476164 -0.0580124 0.00458536 -0.177671 0.0275289 -0.460227 -0.277799 0.126576 0.0876643 0.172846 -0.208523 -0.0499672 -0.0261389 0.0163332 -0.148763 -0.0170169 0.269805 -0.0157817 -0.0822165 -0.0970075 0.056901 -0.00128173 -0.261653 -0.130098 -0.0129894 0.121303 -0.00798528 -0.0199649 0.14253 -0.00161491 -0.188467 0.110926 0.139512 -0.00201069 0.31437 -0.0424193 -0.0387769 -0.296203 0.0913931 -0.222356 -0.362934 0.241628 0.452071 -0.145604 -0.236075 0.175707 -0.0371873 -0.127932 -0.0100662 0.17985 -0.106773 -0.0981892 -0.587644 -0.0726129 0.00849149 -0.137698 -0.145649 -0.27893 -0.0957282 0.0512819 0.160237 0.0792987 0.0735545 0.00640527 -0.0106633 -0.0413555 0.0793693 0.0181933 -0.365267 -0.217211 0.13604 0.0690159 0.175388 -0.0296527 0.234179 -0.000320397 0.0686692 0.232904 0.25799 -0.123172 -0.222526 -0.139575 0.131267 0.0820169 0.00888473 -0.0377536 -0.0438356 -0.154109 -0.328087 0.41409 -0.13448 0.129994 -0.0138084 -0.198838 0.0686074 -0.0583698 0.198009 -0.0251023 0.160626 -0.127352 0.0289134 -0.126891 -0.0967036 0.234838 0.149459 0.106695 0.0915098 -0.105742 0.0700922 -0.0473667 0.219829 0.117701 -0.255073 -0.011115 -0.110495 0.0283334 -0.195605 -0.0872601 0.114313 0.0628325 0.0860349 0.0585436 0.213864 -0.0436078 0.236703 -0.212077 0.0464945 0.0370292 -0.275605 0.0702203 0.0177986 -0.0769932 0.168827 0.251257 0.031613 0.336094 0.202293 -0.0954498 -0.195893 0.0351571 0.214462 0.0187258 0.115468 -0.123858 -0.193751 -0.0714475 -0.148506 0.108179 -0.0224382 0.0251256 -0.137167 -0.250332 0.218909 -0.0707001 -0.291641 0.167512 -0.176476 -0.0762596 0.119026 0.347189 0.0514299 -0.0531837 0.0880235 -0.0210775 -0.25102 0.301191 -0.04182 -0.068159 0.0917891 0.0775617 0.296639 0.0651477 -0.212172 0.103186 -0.036021 -0.129782 0.288896 0.178007 -0.0165956 -0.000659197 0.0107983 -0.0890192 0.412317 -0.262207 0.0211029 0.0747175 -0.275196 0.0972693 -0.0282266 -0.221356 0.0979164 0.140224 -0.0865186 0.0734191 -0.149762 0.1111 -0.235064 0.198103 -0.0215331 -0.0391257 0.158921 -0.0701218 0.400927 -0.124972 -0.286024 0.183974 -0.145174 -0.189218 0.10841 -0.111963 0.143742 0.157008 0.116466 0.0141135 0.0837064 0.101814 -0.0299365 -0.100964 0.0319547 -0.313001 -0.138231 0.200568 -0.000510608 0.0672339 0.140092 -0.14818 0.0512172 0.215489 -0.0124415 0.0812078 0.207802 -0.277512 -0.0917915 -0.14956 -0.196566 -0.0870334 -0.0764686 0.242426 0.112938 0.0410893 -0.127414 0.0350409 0.0745922 0.0307887 0.205526 -0.0165723 0.0902494 0.00225586 -0.191949 0.0819337 0.236687 0.0921569 -0.247069 0.104255 -0.132824 -0.304277 0.116871 -0.134573 0.127995 -0.0457041 -0.176535 -0.128527 0.0403865 0.184207 0.0790136 -0.211316 0.0841494 0.186111 -0.213175 0.132759 0.0185934 -0.0839879 -0.088613 -0.0520826 -0.139409 -0.137679 -0.133035 0.168465 -0.58482 -0.120262 -0.191278 -0.248109 0.0621248 0.255236 0.0233846 -0.125603 0.0919575 -0.0992916 0.166027 -0.0634051 0.122097 -0.268203 0.382633 0.302341 0.15414 0.165827 0.190764 0.179504 -0.331388 0.233106 0.0152544 0.287406 0.0967274 -0.193526 -0.160399 0.0820794 0.0362365 0.125287 0.00829756 -0.106914 0.0365367 0.236368 0.0648778 0.138397 0.850033 -0.678951 0.429265 -0.0264198 0.164266 -0.0935162 0.205404 -0.0556476 -0.983569 0.739337 -1.21783 -0.35978 0.621794 0.477015 -0.365533 -0.268212 -0.205382 -0.694856 -0.747957 -0.72559 -1.50869 -0.594216 -0.560739 -0.922434 -0.308363 -0.797145 -0.910447 -0.794432 -0.219779 -1.7188 -0.66656 -0.785155 -0.796141 -0.0458248 0.429435 -0.456476 -0.0670386 -0.146163 -0.126199 -0.0986074 0.207279 0.419219 -0.89879 -0.361617 0.176276 0.516443 -1.0509 -0.892571 -1.11545 -0.607292 -0.64606 -0.534003 -0.621668 -0.493845 0.697339 -0.533187 1.69304 -0.149256 -0.908404 0.516479 0.282865 -0.917715 -0.278396 0.108283 -0.305744 -0.0710595 0.109429 -0.165685 -0.139465 -0.848061 -0.758426 -0.385801 0.343237 0.34184 -1.15842 0.295333 0.308039 0.12273 -0.335614 0.255633 -0.697107 0.147187 0.718178 -0.460288 -0.463089 -0.0872541 -0.250263 0.112821 -0.155203 0.93788 -0.470968 0.978918 -0.332433 -0.323489 0.755951 -0.463328 0.24069 0.0122828 0.0679632 0.118851 0.0912038 0.100827 0.0562424 -0.0819024 -0.0382261 -0.318784 0.00570312 0.339991 -0.072332 0.0548056 -0.00148927 0.135051 0.109767 0.0612377 0.215185 -0.142874 -0.0923664 0.0975033 0.0401034 -0.0341248 0.00905856 -0.209574 0.0859743 -0.0385645 -0.317786 0.244067 0.0640262 -0.128523 -0.120348 0.0599104 0.280726 -0.0731435 -0.325373 -0.372756 -0.418946 -0.0974567 0.134903 0.136449 -0.0613674 0.273295 0.0937603 -0.313455 -0.022401 -0.123859 -0.0882959 -0.10981 0.204762 0.0837096 -0.0662387 0.0297595 -0.0221561 0.00595285 0.221586 -0.215897 0.13597 0.0601201 -0.00180977 0.316976 -0.145904 0.122593 0.269983 -0.132448 0.0739649 0.0118688 -0.0185329 0.337915 -0.26361 0.302269 -0.00792861 -0.103399 -0.00500538 0.0329778 0.0507565 0.06524 0.0164071 -0.00978461 0.361409 0.194412 -0.137344 -0.0562385 -0.108922 0.00217632 -0.167911 -0.00212433 0.2452 -0.293721 0.0314735 0.025688 0.0928631 0.0727893 0.0829008 0.199822 -0.32137 -0.0631763 0.51125 -0.0614539 -0.0665089 -0.163842 -0.264602 0.20957 0.29277 -0.0151745 0.125637 -0.138248 0.385523 -0.304388 0.121967 0.419394 -0.654514 -0.0786393 -0.014464 -0.364629 0.231224 -0.308369 0.172428 0.109995 0.0066111 -0.00576325 -0.0360957 -0.0935168 0.00235529 -0.259094 -0.0568681 -0.0724379 0.114378 -0.0241798 0.110118 -0.149457 -0.0240319 0.117569 -0.0125201 0.0177255 0.0538507 0.0830577 -0.529763 -0.434788 0.0299604 0.278267 -0.609576 0.0212263 -0.11712 -0.120321 0.515148 -0.0491229 -0.192971 -0.339765 0.138479 -0.0244994 0.246863 -0.0606575 -0.219872 -0.20741 -0.0824118 0.105002 0.346405 -0.0300747 -0.329049 0.195817 -0.0527871 -0.0189161 0.404933 -0.169535 -0.0637389 0.10255 0.0282587 -0.0521089 0.283914 -0.293893 0.268146 -0.132023 0.109745 -0.0485411 -0.129151 -0.0914969 -0.0655259 0.238644 0.237008 -0.114096 -0.0293111 0.375361 0.266412 -0.353097 -0.00460234 0.142868 -0.0808619 -0.0780607 0.0263823 -0.00992662 0.0972393 -0.450893 -0.0319117 0.149159 -0.01556 -0.297477 -0.206466 0.0252101 0.07413 0.143293 -0.205655 0.101002 0.127033 0.0630291 -0.269729 -0.245279 -0.284417 -0.143372 0.10665 0.0588566 -0.293433 -0.258571 0.103289 0.0581666 -0.0745911 0.226206 0.255293 0.0205344 0.0764688 -0.247477 -0.231129 0.343197 -0.1721 -0.00247123 0.0267501 0.0898059 -0.134601 -0.0407918 -0.0670452 -0.160864 0.298957 -0.0198499 0.266199 0.0776372 0.178003 -0.142003 -0.0929488 -0.00433053 0.0489798 -0.060706 0.322117 -0.0301402 0.260435 -0.0794207 -0.31588 0.0347758 -0.274142 -0.216887 -0.0734062 -0.0826163 -0.22541 -0.0817476 -0.0545576 0.150283 -0.0900013 0.0873473 -0.182683 -0.168861 -0.140438 0.0510521 0.173587 0.00303148 0.212255 -0.103525 0.0361199 -0.0317029 0.097733 0.162849 0.2045 -0.0818774 0.161398 -0.159075 0.0279192 -0.0593912 0.0427795 0.00141671 0.051986 0.145794 0.0569676 0.5541 0.0498855 -0.0608557 -0.0855942 -0.0348185 -0.0703053 -0.00768332 -0.371784 -0.100257 -0.0326735 -0.470237 0.035169 -0.0768053 0.144713 -0.225415 0.267449 -0.473414 0.267686 0.405163 0.218589 0.310813 0.17228 0.328329 -0.394793 -0.0969974 0.268213 -0.512945 -0.0385348 -0.242043 -0.346821 -0.111098 0.178549 0.0475729 0.488579 0.163755 -0.451517 0.0733679 0.0350707 -0.0670461 -0.155815 0.191539 0.122122 0.103407 -0.0654974 -0.178641 0.164538 0.0212261 -0.311881 -0.318804 -0.0303543 0.00726681 -0.262917 -0.0883983 -0.0774738 0.321844 -0.763827 0.090645 0.111568 -0.202566 -0.0482958 -0.345985 -0.428429 -0.673348 -0.35972 -0.226618 -0.0394215 -0.175203 -0.418823 -0.0351464 -0.486927 -0.378219 -0.128113 -0.0466183 0.0316296 0.201427 -0.19409 0.321123 0.0664076 -0.0730579 -0.516128 -0.306323 0.256685 0.116558 0.0406596 -0.0503987 0.146423 0.272925 0.075131 -0.382089 -0.196569 -0.00172569 -0.0251484 0.119662 -0.0959225 -0.0374673 0.219503 -0.231644 0.118323 0.0747991 0.0176887 0.0416514 0.253515 0.148013 0.150831 -0.166769 -0.0958407 -0.211943 0.145617 -0.191545 0.0968479 0.135417 -0.0333256 0.125519 0.110532 -0.131833 -0.306059 -0.250449 0.383376 -0.440895 -0.46106 0.0888203 0.415242 -0.0250978 -0.351633 -0.261195 -0.313927 0.208371 -0.0376274 0.0931506 -0.163072 0.148791 0.297717 0.174639 0.0541429 0.11256 -0.461755 0.188391 0.0398291 -0.0253612 0.0965345 0.188133 -0.0847564 -0.151747 -0.00663897 0.045524 -0.0287698 -0.466878 0.0775517 0.586548 -0.141029 -0.29486 -0.235508 -0.0881181 -0.195746 0.383431 -0.275828 0.0772229 -0.250467 0.0461414 -0.152608 0.0127803 -0.147201 0.100834 -0.519397 0.0655238 -0.117012 -0.160173 -0.0344974 0.0569593 0.0937051 0.271391 0.022492 -0.145697 -0.088315 -0.0339359 -0.216365 -0.0410061 0.0645041 -0.00410439 0.0809356 -0.126102 0.0866769 0.263232 0.158677 0.141619 -0.0727722 0.165569 0.175789 0.0145436 -0.153489 0.0800377 0.0630584 -0.558089 0.138351 0.0534791 -0.320146 0.015305 -0.148088 -0.229566 0.0920604 -0.128079 -0.0501876 -0.0280447 -0.0756626 -0.0612672 -0.10571 -0.0481913 0.037783 -0.162949 0.207759 0.222259 -0.0570491 -0.0233842 0.384487 0.247385 0.305791 -0.0222688 -0.0881021 -0.311151 -0.0717191 -0.0216982 0.0577165 0.223867 -0.00991252 0.0453482 0.0422007 0.28522 -0.0376005 -0.10034 -0.191148 0.223551 0.167453 -0.23822 -0.0805484 0.109307 -0.181217 -0.179543 -0.154492 0.0732093 0.118453 0.121896 0.0772708 0.140452 -0.0984597 -0.263832 -0.0205487 -0.0933963 -0.202401 -0.0956122 -0.0537802 -0.0299433 -0.0220341 -0.141533 0.187794 0.0159688 0.204615 -0.0387546 -0.00447616 -0.212508 0.20427 0.307295 -0.119732 -0.18806 0.277473 0.0862394 0.191663 0.0196097 -0.324104 -0.108114 0.123547 0.234619 -0.130039 0.192631 -0.0641889 0.0268507 -0.0261382 0.278881 0.116683 -0.0107551 -0.421426 -0.308738 0.205096 -0.166628 0.0170918 0.11683 -0.424312 0.100711 -0.157556 -0.101761 0.0797534 0.010033 -0.0216234 -0.173381 0.260956 0.210657 0.772435 0.131878 -0.704425 0.00516385 0.156769 0.000119846 -0.145925 -0.16942 -0.295307 0.500921 -0.0951005 0.100764 0.385399 -0.534996 0.621395 -0.205092 -0.419464 0.248241 -0.695321 1.13349 -0.959711 0.589129 0.142524 -0.0772925 -0.274431 -0.631251 -1.44224 0.661244 -0.490261 -0.217657 -0.115554 0.207268 0.0640508 -0.284167 -0.503563 0.0185323 0.120142 -0.168009 0.0928126 0.012175 -0.926945 0.551004 -0.0570972 0.484229 -0.690211 -0.387214 0.119255 -0.606527 -0.26011 -1.09535 -1.03977 -0.493994 0.506632 0.18472 -0.679569 -0.161911 0.547368 0.361856 -0.12281 0.0571338 -0.0418583 -0.139705 -0.571546 -0.60621 -0.312494 -0.156003 0.218774 -0.849947 0.163008 -0.322711 -0.424772 -0.40325 0.243153 -0.525334 -1.21708 0.191252 -0.183178 -0.439639 -0.0951411 -0.0598907 -0.167444 0.410993 -0.0173756 -0.105888 -0.786381 -0.562986 -1.50475 0.533079 -0.445959 -0.160638 0.0735305 -0.120233 -0.385719 -0.318791 0.000107096 -0.249583 -0.122168 0.455021 -0.459187 -0.0496694 -0.0825127 0.0236035 -0.0902712 0.0174559 -0.231125 0.443717 0.361326 0.0910425 -0.187093 0.262889 0.261569 0.0857327 0.25687 0.00932842 -0.133496 -0.00888841 0.101686 -0.2487 -0.0872204 -0.095135 -0.0273536 0.283004 -0.162331 0.131134 0.227533 -0.490296 0.130859 -0.125996 -0.274108 0.00042547 0.0638363 -0.156776 0.0273667 0.0861845 -0.132025 -0.121338 -0.0532566 0.0421425 -0.159131 -0.11049 0.00800665 -0.08163 0.237875 -0.363933 0.0497103 -0.115752 -0.0146768 -0.0596952 -0.267259 0.122852 -0.0960158 -0.126752 -0.557147 -0.00689711 0.373521 0.0468957 0.0285299 -0.0846568 -0.0337416 -0.080334 0.167259 -0.595839 0.042219 -0.179105 0.0432961 -0.0143413 -0.266665 0.256625 -0.312255 -0.223609 -0.0592956 0.103248 -0.225396 0.0980869 -0.0738527 0.2451 0.505425 -0.100883 -0.294643 -0.175534 -0.299655 -0.0065845 -0.311484 -0.201067 -0.0157909 0.0647313 0.367413 -0.0829565 0.198721 -0.0988256 -0.0830731 -0.256083 -0.824497 -0.380651 0.123901 0.245666 0.147382 -0.0458094 0.030834 0.162712 0.150556 0.126082 -0.0375356 -0.166874 -0.019302 0.0550912 0.0493667 -0.140192 -0.101072 0.078117 0.462842 0.0270048 0.0849772 0.00422634 -0.138452 0.126217 -0.302865 0.162257 -0.0870966 0.326825 -0.00172295 -0.310683 0.187756 -0.156191 -0.27619 0.0594017 -0.00832203 -0.0485161 0.215857 0.0790861 -0.125707 0.0322759 0.266139 0.0631238 0.0425216 -0.542491 -0.322315 -0.100645 0.0989504 -0.160329 -0.146883 -0.0486705 -0.661744 0.0918272 -0.763113 0.145734 -0.435603 0.141604 0.0906722 -0.0972714 -0.110013 -0.140873 -0.421143 -0.155171 -0.030186 0.126957 -0.122241 -0.263235 0.298742 -0.0568939 -0.126267 0.0332905 -0.0030236 0.0246756 0.0410993 -0.0452444 -0.0286693 0.283597 -0.0735074 0.221875 0.219971 0.235744 -0.291695 0.108753 -0.416227 -0.296439 -0.151202 -0.153846 -0.865792 -0.129687 -0.151726 -0.0103249 0.0529442 0.278226 -0.210185 -0.377361 0.0519193 -0.302452 -0.114395 -0.0607111 0.0619826 -0.0824978 0.0616888 -0.0750062 0.0562729 -0.0819973 0.0944589 0.308849 0.103829 -0.391826 -0.167958 0.163263 -0.0711163 -0.15352 -0.249071 0.00746798 0.0628686 0.256096 0.00449963 0.210634 0.0064671 -0.0384671 0.0259466 -0.00874203 -0.241975 -0.0943678 0.000256142 -0.155934 0.0559531 0.0189872 0.121622 0.122281 0.286945 -0.0079528 0.0132932 -0.164299 -0.12619 -0.131931 -0.0217528 -0.087514 0.286809 0.0793831 0.025503 -0.184586 0.143404 0.0931454 -0.1932 -0.078981 0.366695 0.0965547 -0.222499 0.0732118 0.16754 -0.243987 -0.100368 0.268604 0.0902856 0.143588 0.540486 -0.24234 -0.0999703 -0.0108198 -0.0624294 0.041863 0.314407 -0.144499 0.104791 0.00888838 -0.259238 0.333669 0.146918 -0.0510227 0.0533007 -0.181531 0.0580097 0.0260451 0.208321 0.187259 -0.090106 -0.360395 -0.147014 0.193487 -0.212305 0.185677 0.140808 -0.02641 -0.254502 -0.192618 -0.159718 0.0357096 0.032867 0.0947738 -0.0412157 -0.143406 0.318054 -0.00709014 0.500341 0.0800827 -0.066681 0.111267 -0.107562 0.0199692 -0.181981 -0.200717 -0.348955 -0.19311 0.13401 0.0609307 -0.0630472 0.47406 -0.848197 -0.316205 -0.656474 0.253797 -1.10444 0.20312 -0.136513 0.112308 -0.202509 -0.608791 -0.826221 -0.0696333 -0.199238 -0.20216 -0.0171385 -0.0103759 -0.816616 0.103134 -0.0723217 0.0335944 -0.0937943 0.0122285 0.105397 0.0413011 -0.189608 0.750574 0.378581 -0.733364 0.374554 0.0552477 -0.276811 -1.35985 0.0961319 -0.0582582 -0.581835 0.00846579 -0.096384 0.0968308 -1.79539 0.0184227 0.223567 -0.372931 -0.250592 -0.107685 0.947666 -0.529654 -0.0176042 -0.992138 -0.830792 0.196594 0.228761 -0.567278 0.043034 -0.159664 -0.0836797 0.00267591 -0.222497 -0.348511 -1.03674 -0.116275 0.182871 -0.529365 -0.0498458 0.0335548 -0.61382 0.208822 0.521982 -0.742914 -0.0582326 -0.226075 -0.709138 -0.127409 0.0658586 -0.26582 -0.112309 0.308848 -0.339165 -0.231456 0.37395 -0.86928 -0.0845816 0.0928393 0.150946 0.151138 0.209311 -0.110494 -0.18377 -0.194839 -0.209404 0.0950573 0.152732 -0.208261 -0.03372 0.0897709 0.170174 0.0655455 0.0442366 -0.146991 -0.0514438 -0.0823332 -0.176419 -0.198255 0.218765 0.0666457 -0.0409501 0.0919235 0.190977 0.0879284 0.0716088 0.068433 0.255651 -0.176645 -0.00296993 0.0206232 0.202876 0.131102 -0.35853 -0.0895953 -0.179109 0.0412309 -0.0996375 0.00102593 -0.241122 -0.0401942 -0.230244 0.338438 -0.0128617 0.243741 0.0161615 -0.230796 0.0640165 -0.168554 0.145107 -0.0745579 -0.10794 0.0644684 -0.316687 0.0865617 0.0580295 0.00667229 -0.368519 0.170796 0.168379 0.151205 -0.168907 0.020283 -0.0721945 0.0982322 -0.251946 0.0767547 -0.166141 0.150706 -0.00163206 0.0835927 -0.254071 0.0552379 0.231044 -0.138927 0.255908 0.0617823 -0.299495 -0.00542863 -0.0452415 -0.318719 0.247315 -0.139262 -0.0041601 0.139146 0.00967805 0.278999 0.000576442 -0.0641974 -0.068691 -0.0665527 -0.0283476 -0.138765 0.156115 -0.0463699 -0.0915043 -0.105426 0.0715994 -0.228654 0.0493081 0.184437 0.124981 0.0551552 -0.202151 -0.258604 -0.0481918 -0.191676 -0.0560698 0.171463 0.117528 0.0232519 -0.175095 -0.0289901 0.119027 -0.0928538 -0.016945 -0.010708 0.0270897 0.24576 0.0490702 -0.0311855 0.0812485 0.0620087 -5.7135e-06 -0.290077 0.0977368 0.10905 -0.0958242 -0.0375755 0.0557654 0.08644 0.11278 -0.0696368 -0.0244345 0.062297 -0.0310627 -0.281064 -0.270133 0.057538 -0.146387 -0.0201715 0.0567629 0.11842 -0.172982 0.142316 0.248965 -0.0932434 0.064345 0.135298 0.160309 -0.0165377 0.0867682 -0.0431345 -0.217891 0.210874 0.209115 -0.316128 -0.0258275 0.118489 -0.0103954 0.0585813 -0.016943 -0.0246161 0.340602 -0.0161474 -0.096293 0.0600847 -0.319379 0.0703669 0.0529877 0.143157 -0.0498976 0.115573 0.938134 -0.143023 -0.0389363 -0.0404868 0.426317 0.0334804 -0.0586052 -0.0532712 0.132917 -0.194732 -0.0332443 0.0837686 0.0739015 -0.0290815 -0.131721 -0.0385294 0.201734 0.175952 -0.160568 -0.32918 0.0875246 0.14746 -0.280373 0.0450651 -0.162319 0.302732 0.275839 0.270384 -0.223889 0.411584 0.0559311 -0.0589079 -0.18589 -0.184634 -0.014988 -0.179582 0.0738015 0.218917 -0.211425 -0.288628 -0.0165131 -0.00262276 -0.38953 0.114096 -0.219159 0.192794 -0.0834637 -0.193614 0.0984072 -0.0112554 -0.155833 0.178393 -0.0191537 -0.112756 -0.25394 0.0124596 0.225381 0.210007 0.0938804 -0.778847 0.194433 -0.679302 0.280421 -0.289058 0.137611 0.0894996 0.0843229 -0.223202 -0.434907 0.133431 -0.166105 0.015931 -0.362241 0.0208547 0.1725 0.287406 -0.179791 0.0130234 0.396522 -0.307972 -0.0196836 -0.447198 0.0852872 -0.160319 -0.146633 -0.000353449 0.367727 0.117848 -0.329804 0.0137479 -0.265296 -0.00212354 -0.134466 0.221459 0.130093 0.152143 -0.502651 -0.389598 -0.35702 0.288972 -0.088321 0.0412814 -0.0572701 -0.157912 0.0648948 -0.160692 0.227905 0.0447725 0.0845504 -0.0221351 -0.320069 -0.136655 0.681364 -0.612632 0.233824 0.0776051 -0.0359316 0.034054 -0.19616 -0.0141101 -0.913877 0.236624 -0.497229 -0.244729 0.464903 -0.441846 0.122216 -0.434361 0.0184262 -0.579495 0.296332 0.194993 -0.414825 0.106253 -0.222935 -0.543951 -0.248814 -0.326846 -0.234322 -0.33252 -0.137549 -0.630673 0.284395 -0.300833 0.160132 0.150389 0.380464 -0.320812 0.0437881 0.0230797 -0.0460262 0.0913953 -0.189922 0.292733 -0.387421 -0.0433808 -0.298774 0.0360274 0.0623756 -0.597479 -0.831046 -0.0867368 -0.51251 -0.192132 0.286814 0.227599 0.264186 0.154139 0.494854 -0.0341598 -0.236292 0.446294 0.879753 0.321909 -0.198004 0.257109 -0.166248 0.213175 -0.299725 -0.336161 -0.180059 -0.27421 -0.329208 -0.292287 0.062355 0.107273 -0.224134 0.167447 -0.0124967 -0.0297115 -0.0492018 -0.0779978 -0.381542 0.215717 0.453917 -0.406718 -0.724885 -0.382684 -0.237803 -0.031807 -0.698585 0.216601 -0.296261 -0.133125 0.0666757 -0.23864 0.543123 -0.183551 -0.649985 0.168287 -0.126858 -0.510874 0.159432 0.0397605 -0.205011 0.0685454 -0.0357247 -0.365185 0.118648 -0.155058 -0.00661203 0.00459467 0.0859506 0.148704 -0.142902 0.261487 -0.749873 -0.443984 0.190444 -0.279789 -0.132326 -0.315654 -0.11144 0.23485 -0.0889777 -0.208221 -0.0150027 -0.0296446 -0.293191 -0.222884 0.0910404 0.157819 -0.413663 -0.0175278 0.151824 0.0477265 0.0787663 0.0682528 -0.0603345 0.152097 -0.240929 -0.251958 -0.0528472 -0.433573 0.14209 0.149193 0.0176704 0.107363 0.120874 -0.27375 -0.67718 -0.058074 0.264818 0.0187135 -0.332296 0.000986029 0.0184728 -0.151029 0.133411 -0.108789 0.173292 0.225266 0.264241 0.200062 -0.0149037 -0.191401 -0.0268825 0.252137 0.360809 -0.215931 -0.183362 0.141018 -0.138653 -0.354309 0.0396843 0.0127441 0.265155 -0.254806 -0.239999 -0.0530283 -0.0225355 0.30462 0.277509 0.194046 0.313058 0.0626775 0.130033 -0.286144 0.276651 -0.138312 -0.137695 -0.372886 -0.0698748 0.369583 -0.154681 0.0639751 -0.206786 -0.00659299 0.0816651 -0.265926 -0.273583 -0.117981 -0.0701348 -0.156317 0.151415 0.0185049 0.106017 0.32285 -0.216259 -0.153389 0.186617 0.0340245 0.0289722 -0.117541 -0.0262722 -0.245852 0.225027 -0.0823196 0.0672156 0.126107 -0.0213639 0.151356 -0.00716236 0.0860504 0.172294 0.034652 0.230871 0.0815365 -0.084163 0.126566 -0.192216 0.0452335 0.168394 -0.0426929 -0.0477489 0.141384 -0.122987 -0.0208792 0.196775 0.266989 -0.0464557 -0.036881 -0.166676 -0.0356057 -0.326713 0.192611 0.0449599 -0.096511 0.0826572 -0.0791453 0.0258871 0.0660264 0.212966 0.0271068 0.748554 -0.212811 -0.0557003 0.361456 -0.011251 -0.0427757 0.258989 0.115369 -0.0151466 -0.0924427 0.210526 0.158254 -0.0126785 0.213192 0.179737 0.180199 -0.0987671 -0.126195 -0.0623111 0.233636 -0.430283 0.213866 0.0784171 -0.400628 -0.241256 -0.111313 0.0206663 -0.139022 0.160673 -0.0212255 -0.0958997 0.0574929 -0.140722 0.163706 0.00660188 -0.238053 -0.175309 -0.379851 -0.437824 0.0923578 0.104964 -0.108058 -0.267264 0.0516158 -0.364654 -0.0803484 0.294969 -0.429848 0.320308 -0.0738427 -0.295653 0.0342338 0.244196 -0.154784 0.164372 0.0672619 0.18728 -0.350098 0.0471284 0.0841106 0.307759 -0.259122 0.160689 0.183484 -0.428381 0.160751 0.238005 -0.320173 0.428715 0.106152 -0.202463 0.218724 0.00549969 0.0693437 -0.0931313 -0.0649506 -0.434888 0.0989969 0.121778 -0.240726 -0.426456 -0.15798 0.102342 -0.239564 -0.21727 -0.17015 0.0889703 0.240485 0.00426117 -0.164053 -0.103627 0.0464547 -0.236544 -0.133894 -0.714403 0.0561485 -0.189314 -0.302661 -0.0518146 -0.0592562 -0.330698 0.101993 -0.124469 -0.00853935 0.184388 -0.0542422 0.127559 -0.0979293 -0.456155 0.0104671 -0.0284402 0.0903042 0.190385 0.0827371 -0.0245886 0.041452 -0.115978 -0.0837118 -0.0735465 0.17225 0.0349396 -0.318285 -0.345764 0.0282467 -0.214485 0.360797 0.0898632 0.0908386 -0.0824089 0.137528 0.0324592 -0.0335106 -0.947551 -1.31575 0.72689 -0.247911 -0.100884 -0.220756 -0.0956999 0.144115 0.208818 0.157199 -0.4345 -0.160862 0.419192 -0.0748383 -0.301161 0.190463 -0.743973 0.044949 -0.536936 -0.305528 -0.601995 -0.20072 -0.0780793 -0.756816 0.183774 -0.210405 -0.0402229 -0.711334 -0.0418922 -0.30148 -0.0392767 -0.502193 -0.441894 -0.0205034 0.0614437 -0.341942 0.109904 0.193194 0.230672 0.20621 0.0530777 -0.593269 -0.646028 -0.296068 0.589297 0.605673 -0.763299 -0.0548534 -0.53359 -0.191443 -0.717277 -0.81782 -1.30405 0.000171508 0.408136 0.28376 0.0873863 0.0372968 -0.18577 0.272229 0.249275 -0.504697 0.00608374 -0.236505 0.13622 0.190701 -0.245692 -0.00159852 -0.35625 -0.729813 -0.454398 0.11754 0.0464306 0.323389 0.011634 -0.0506964 -0.0537016 0.184079 -0.21513 -0.147583 -0.662119 0.143888 0.386796 -0.15825 -0.395459 0.368557 -0.205492 -0.282238 0.158578 0.541455 -0.511207 -0.271271 -0.175896 -0.172321 0.232489 -0.358717 -0.0760358 0.230555 -0.190095 -0.0919694 -0.333803 0.0776582 0.0134586 -0.170362 -0.157236 0.230496 0.0556968 0.00966225 0.190805 -0.0950253 0.0662888 0.119623 0.36903 0.127589 -0.396355 0.073095 0.0846827 -0.0204541 0.149316 -0.15669 0.0124352 -0.061262 -0.0181912 -0.0958599 0.0165318 -0.12689 -0.10297 0.123761 -0.171016 0.0560032 0.147426 -0.049736 -0.0608415 -0.128254 0.193188 -0.326643 -0.254729 -0.0205865 0.0214999 -0.0544075 0.0821231 0.184651 -0.134947 0.197925 -0.0272203 0.212087 0.217115 -0.330265 0.377326 0.0713835 -0.0964212 0.0076304 -0.0385825 -0.0146576 0.00617446 -0.0271695 0.285106 -0.098691 -0.175399 0.0750028 -0.0922222 -0.131164 -0.101433 0.189854 0.303691 -0.124668 -0.0714271 -0.128836 0.138988 -0.0986675 -0.175531 -0.215212 0.0859521 0.164013 0.227187 0.151854 -0.356038 0.211867 0.256497 -0.157882 0.230933 0.00349968 -0.0125669 -0.0554542 -0.103859 -0.051708 -0.0692208 0.120798 -0.0273881 -0.0863899 -0.273722 0.102576 0.820586 -0.408407 0.0411296 0.623632 -0.0594628 0.154499 -0.0480521 0.000212668 -0.227146 -0.498541 -0.0431188 -0.58718 0.147959 -0.00679126 0.172088 0.0435114 -0.27607 -0.361977 -0.562098 0.267136 -0.812506 0.105636 -0.351273 0.174222 0.150029 -0.740719 -1.02051 -0.185019 0.139889 -0.457131 0.238063 0.483879 -0.718168 0.180078 -0.702895 0.170191 0.177604 0.174698 0.043554 0.172525 -0.451767 0.466894 -0.291846 -0.0201571 -0.400604 0.142455 -0.152035 -1.21578 -0.593148 -0.479967 -0.00801529 -0.31074 -0.0236516 0.0469439 -0.65964 0.946028 0.190473 -0.818936 0.0618831 -0.175774 0.192418 0.186438 -0.26154 -0.312733 -0.850033 -0.056271 0.0796599 -0.852104 0.614398 -0.0970558 -0.178787 -0.556543 0.321001 -0.5902 -0.514882 -0.0748307 -0.176833 -0.330264 -0.0129388 -0.388263 -0.371503 0.539798 0.416454 -0.372115 -0.606537 -0.23931 -0.269693 0.491491 -0.0527537 -0.281433 -0.210797 -0.0460823 -0.342894 0.0213932 0.213959 -0.849658 -0.299413 -0.339665 -0.145319 -0.259479 -0.00121736 -0.112635 -0.098252 0.0211917 -0.107843 -0.0482087 0.181791 0.299725 -0.231007 -0.00940317 0.068073 0.174972 0.382793 0.213289 0.0785995 0.240295 -0.414408 0.20252 0.141645 0.00169065 -0.157876 0.0879654 -0.4336 0.216548 -0.392057 -0.159562 0.196755 -0.0599602 -0.0754472 -0.0753555 0.26237 -0.280805 -0.192903 0.211341 -0.160732 0.00854572 0.312753 0.428858 0.140674 0.133471 0.0583101 0.0174466 -0.0209868 0.250867 -0.122207 -0.132553 0.0797979 0.000461345 -0.0124259 -0.0270635 0.284997 -0.0358783 -0.0451292 0.0398155 0.0140058 0.0258535 0.0483271 -0.197741 0.482121 0.142485 -0.173982 -0.0369416 0.0236592 -0.141999 0.0869278 0.0201552 -0.552767 0.16573 -0.0617438 -0.114955 -0.125941 0.14075 0.208847 0.0350291 0.0335472 0.0457475 -0.153177 -0.1276 0.0836273 -0.18479 0.148682 -0.395763 -0.325239 -0.334307 -0.282914 0.292114 -0.344467 -0.0049895 0.135646 -0.0941971 -0.080535 0.0926844 0.0506441 0.0609419 0.259148 -0.0762963 0.0983009 0.20247 -0.219107 0.026971 -0.0366447 -0.200552 -0.00115576 0.0526655 0.02299 -0.00204324 -0.284815 -0.337902 -0.428008 0.0716224 0.178093 0.0565856 -0.000389462 -0.133021 0.0846718 0.181648 -0.208749 -0.0997358 -0.22418 0.0154449 -0.155592 -0.0272492 0.0574155 0.248412 -0.121383 0.00110794 0.287959 -0.16621 0.0331065 -0.071907 -0.153113 -0.117211 -0.132589 -0.107059 -0.131451 -0.170843 -0.109478 0.267758 0.00445143 0.105368 0.153841 0.022085 -0.248611 0.234966 -0.101394 0.08029 0.121676 -0.0189601 -0.204774 -0.0757631 -0.117685 0.0429022 0.0847346 0.161165 0.0937725 0.32673 -0.19257 -0.0227497 0.158504 0.208045 0.172662 0.188407 -0.285513 0.0156605 -0.147572 0.171257 -0.400827 -0.0233565 0.258489 0.0917444 0.146995 0.0585283 0.488654 0.134224 -0.177437 -0.449346 0.0830873 0.00639443 -0.137726 -0.130617 0.0933049 -0.0622314 -0.0810015 0.0852498 -0.0602132 -0.0630411 -0.160475 0.250253 0.0695481 -0.0225714 -0.234768 0.233513 -0.257471 0.129346 0.154539 -0.0600655 0.136421 -0.210402 0.0300844 -0.281074 -0.333627 0.302455 -0.352058 0.0428806 -0.043564 -0.194839 0.114024 -0.0501714 -0.025946 -0.196261 0.223712 0.131654 0.00598877 0.0653104 0.163436 -0.133222 0.102262 0.456048 -0.0901643 0.140955 -0.297422 0.0165927 0.300856 0.135582 0.00255773 0.0514371 -0.0871351 0.0648954 0.113056 -0.137506 -0.13442 -0.761777 0.186012 0.0229634 -0.0456824 -0.102672 -0.178337 0.0215615 -0.23852 0.274656 0.147343 -0.0140009 0.297459 -0.129775 -0.0125973 -0.0234577 0.0150576 0.148656 -0.656628 -0.0409506 -0.526921 0.13244 -0.0836446 -0.075881 0.0587419 0.000246825 0.0927322 0.134195 -0.0605451 -0.0830197 0.190464 0.0193277 -0.142146 -0.201006 -0.0807334 0.00395104 -0.138502 0.128526 -0.631728 -0.0762667 -0.0107202 -0.133272 -0.283938 0.151221 0.0785122 -0.351626 0.0931612 0.0461278 -0.225068 -0.0124882 -0.258358 -0.15778 0.32185 0.0640783 -0.0929346 0.167593 -0.214214 0.127033 0.0173213 0.0114758 0.181073 -0.321428 0.151643 0.0350345 0.0761245 0.277055 -0.281657 0.33659 -0.0211381 0.193017 0.0421532 0.0113116 0.134102 -0.124802 0.170518 0.0873005 0.227467 -0.156573 0.265467 0.156411 0.0713277 -0.0548558 -0.0547444 0.255168 0.125849 -0.139658 0.190334 -0.247336 0.0119809 0.060092 0.0326734 0.273828 -0.0618519 0.0302111 0.0442867 -0.436183 0.358383 0.554767 0.220634 -0.404615 0.213406 0.0309737 0.0992006 0.120729 0.0582741 -0.122017 -0.0683868 -0.0478879 0.54978 0.0493518 -0.0453071 -0.123118 0.100369 -0.115546 -0.502816 -0.294275 0.0823987 0.113562 0.0329775 0.287655 0.00918348 -0.0577955 0.22361 -0.00796826 0.161658 0.0176101 0.184839 0.0512938 -0.147515 0.191378 -0.152705 -0.034229 -0.232143 -0.132043 0.0884773 -0.267157 -0.012615 0.112009 0.0297363 -0.139998 0.107636 0.0616135 0.151722 0.129891 -0.00802816 0.105851 -0.0226727 -0.291169 0.40217 -0.00295425 -0.357447 0.00245828 -0.507625 0.259455 -0.130113 -0.0304827 0.23785 -0.374971 0.203939 -0.356149 0.101508 -0.254911 -0.150709 0.0799539 0.209805 0.514142 0.181999 0.285593 -0.23159 0.148811 0.133606 0.588815 -0.10594 0.438612 -0.213665 0.439808 -0.392538 0.45215 -0.0432351 0.447076 0.410969 -0.847786 -0.202601 0.3675 -0.207405 0.273208 1.41147 0.371737 1.04137 0.251561 0.000472362 0.282928 -0.0649512 0.0652364 -0.157931 0.312275 -0.428762 -0.186995 -0.664751 -0.323993 -0.391099 -0.129292 0.0577879 0.0525553 -0.228163 -0.0340216 -0.286425 -0.375674 0.0953531 0.22369 0.353065 -0.095614 0.0232736 0.02682 0.0644206 0.0302529 -0.301416 -0.202851 0.155261 0.177698 -0.0411071 -0.0103756 0.329731 0.230986 -0.138435 -0.269793 -0.211144 -0.0253489 0.0548117 -0.0261 0.0247919 0.0160885 -0.162812 -0.268688 -0.0517157 0.400737 -0.118222 -0.151905 -0.294857 0.0923999 0.165839 0.40665 0.00727467 -0.221284 -0.150256 0.0736096 -0.120232 0.187756 0.109859 -0.0485257 0.0511667 0.542017 -0.0189609 0.0795406 0.0724402 0.114446 0.213093 -0.00607612 -0.0754493 -0.150667 -0.0646524 0.0184718 -0.173499 0.293352 0.118781 -0.0857342 -0.000918166 -0.294055 -0.272373 -0.148266 0.125784 -0.139122 0.117154 -0.505897 -0.336616 0.0359837 0.160412 -0.335239 0.0689355 -0.00413922 0.342028 0.0693645 0.121429 0.337406 -0.174698 -0.0710822 -0.104342 -0.00554123 -0.174525 -0.0498414 -0.379796 -0.0946866 0.151789 -0.387635 -0.0047313 -0.0278591 -0.167277 0.048144 0.275612 -0.106287 -0.359301 0.474241 0.0313646 -0.00814388 0.17547 -0.733004 -0.030658 0.118462 0.0586619 0.0982064 0.14221 0.00554917 -0.117765 0.0369707 0.0615818 -0.337706 -0.0369619 0.0653204 0.161156 0.0270432 -0.2116 -0.351115 -0.256657 0.0535084 0.0474087 -0.183692 -0.149163 0.131281 -0.298258 0.173501 -0.146015 -0.0424747 0.301474 0.150659 -0.0754696 0.0139916 -0.190509 0.175858 0.19719 0.128529 -0.022557 -0.20175 -0.306032 -0.257296 -0.155635 -0.165212 -0.427026 0.0863376 0.118463 -0.146019 0.169361 -0.00187591 0.761363 0.148871 0.659188 0.30391 -0.33934 0.5236 0.478077 -0.873218 0.66989 0.0364926 0.695889 -0.635783 0.495178 1.16571 0.180812 0.34096 -0.00116126 -0.118958 -0.139313 1.08397 -0.249674 -0.204015 -0.0200103 0.134246 -0.429908 0.134512 0.622664 0.0314037 -0.0836855 -0.395193 0.459651 -0.536014 -0.220867 0.319653 0.281607 -0.151187 0.156723 -0.107892 -0.0513459 -0.157686 0.0617297 -0.202132 0.181661 -0.186946 0.101523 -0.218416 -0.0285891 0.122251 0.0225774 -0.303027 0.133319 -0.396794 0.0682699 -0.0557519 0.238664 0.169324 -0.00600288 0.181961 0.0709834 -0.380493 -0.307099 -0.153912 -0.0274145 0.196582 0.323116 -0.111038 -0.210805 -0.0985064 -0.344273 -0.215092 -0.22908 -0.158242 -0.0521803 -0.222262 -0.195843 -0.00593054 -0.37909 -0.128718 -0.0271027 0.183635 0.212153 -0.230025 0.0457646 -0.10613 -0.181309 -0.0284041 -0.176594 -0.197091 -0.0346516 0.378187 -0.00980968 -0.131586 0.25317 -0.0989104 0.118618 -0.146797 0.441881 -0.0461399 0.105262 0.00473713 -0.291292 0.0912962 0.221748 -0.233186 -0.0390273 -0.113064 0.130562 -0.119043 0.23649 0.118963 -0.0678392 -0.08004 -0.0380911 -0.0457339 -0.111974 -0.216061 -0.0169582 0.0862251 0.238264 -0.229136 0.101495 -0.215457 -0.0238686 -0.0980513 -0.375863 -0.227653 -0.00428016 -0.033838 -0.233341 0.0695679 0.0698804 0.134101 0.195847 -0.05049 0.0241302 0.144644 -0.0243845 -0.0325154 -0.207223 -0.416977 -0.181646 -0.0641823 0.060672 0.0806206 0.348775 0.0318614 -0.0397171 -0.138883 -0.14174 -0.0884222 0.111241 -0.191581 -0.0113692 0.108405 -0.00508921 -0.0729897 -0.0208846 -0.129985 -0.0287161 -0.0130717 -0.322607 0.279993 -0.285275 -0.304194 -0.075615 0.0604379 -0.0131156 -0.0734324 -0.236898 -0.0770252 0.0761687 -0.0632732 -0.289125 -0.0485481 -0.266741 -0.140927 -0.0260709 -0.142012 -0.258092 -0.0951591 -0.160592 0.0559267 -0.257116 0.357589 0.839187 -0.253515 0.0776707 0.410453 0.133309 0.929979 -0.0817074 -0.287627 1.44107 -0.300007 0.0686864 -0.259939 0.770114 0.307687 -0.623849 -0.326891 -0.0152406 0.0154807 -0.0625733 0.645042 -0.0485484 0.752017 1.34231 0.406489 0.0391286 0.216204 -0.0259592 -0.456991 -0.146428 0.722876 0.288609 -0.554662 0.469859 0.571801 -0.0175743 -0.278579 -0.000955515 -0.322593 -0.0475109 -0.0806743 0.174097 0.144279 -0.122355 -0.151284 -0.464118 -0.128227 -0.137262 -0.127272 0.12515 -0.19246 -0.0660542 0.0182241 0.03555 -0.380705 -0.0753275 -0.386037 -0.138479 -0.13923 0.176005 0.0383954 -0.140095 -0.258996 -0.150329 -0.0450381 -0.149132 0.107425 -0.0274818 -0.0568584 -0.0353838 0.0518642 -0.285019 -0.136715 0.045667 0.232521 -0.286143 0.0655013 -0.00989163 -0.029354 -0.120189 -0.0749537 0.0176415 0.078201 0.314012 0.780272 0.0272454 0.0506001 0.00635579 -0.0913562 0.0219491 0.017637 -0.0677369 -0.0320421 0.14275 -0.0675293 0.0458236 0.269495 -0.158128 -0.235766 -0.133336 -0.0748448 -0.0121282 0.113738 0.09189 -0.0948787 -0.0113581 -0.0900725 -0.132385 -0.0948907 -0.20264 -0.101017 -0.183127 -0.0345068 0.195427 -0.0227076 -0.283605 0.175161 -0.421534 -0.238814 -0.24194 -0.156301 0.0828642 0.0429527 -0.195977 -0.0941716 0.168288 -0.0705831 -0.126196 0.219269 -0.0395418 -0.0268889 0.10321 0.178215 -0.154131 0.519915 0.433496 -0.0397602 -0.0505634 -0.00562132 -0.384122 -0.0215327 -0.198255 -0.169792 0.206784 0.179384 0.11963 -0.391984 -0.154901 -0.176443 -0.0535358 -0.24335 -0.0399768 -0.135767 0.0939577 -0.155317 0.00673996 -0.154483 -0.01425 -0.0847722 -0.00205707 0.02789 -0.117282 -0.101347 -0.102497 -0.0904525 0.0646399 1.00601 0.0460298 -0.0890955 -0.0636725 -0.108462 0.0112254 0.0616665 0.256031 -0.0278611 -0.0158152 -0.0387813 -0.446746 -0.129536 -0.0400385 0.0642224 -0.328698 -0.118877 -0.422437 0.0324154 -0.400174 -0.100399 0.175743 -0.0207972 -0.213525 0.367944 -0.230492 -0.0397114 -0.504592 -0.00721677 -0.0537291 0.0152214 -0.00251624 0.764834 -0.0406413 -0.0909445 0.340306 0.194298 -0.0205376 -0.171363 -0.169032 -0.134701 0.104863 0.178808 -0.149712 -0.00840725 0.00712937 -0.00334585 0.0102443 -0.0947547 -0.12312 0.101744 0.00355827 -0.293887 -0.0495622 0.00900058 0.235327 -0.0616125 -0.122771 0.117271 -0.0803084 -0.329501 -0.216261 0.147727 -0.385364 0.061408 0.0702875 -0.164168 -0.16544 -0.441835 -0.0391347 0.204793 -0.0845933 -0.0137934 0.170018 -0.0628248 0.230012 -0.0014017 0.0912802 0.151541 -0.425036 -0.152053 -0.345933 -0.0489949 -0.0450335 -0.129181 0.20969 0.0900918 -0.111507 -0.19419 -0.188641 0.218016 0.148751 -0.339664 0.892416 0.521285 -0.514456 0.0278866 0.388327 -0.482605 0.581922 -0.318062 0.28142 -0.687408 0.0507987 -0.0937317 1.21417 -0.120875 -0.237291 0.170532 0.0749253 -0.0352121 -0.512627 -0.0826749 0.419243 0.707694 0.683648 0.770463 -0.0421382 0.512998 -0.893922 0.140261 -0.377844 0.622358 0.625158 0.169952 0.179178 -0.483986 -0.159283 0.748925 -0.384839 0.70747 0.226432 0.147695 -0.0277444 -0.0507856 0.111987 0.164122 -0.0934352 -0.282803 -0.185954 0.0177689 -0.0914348 -0.165183 0.09356 0.0488096 0.108618 -0.325107 -0.0271743 -0.0390821 0.120701 0.0587757 0.0321466 0.0437417 -0.362897 -0.311938 -0.0618781 -0.101621 -0.0130226 0.131258 0.00260773 0.126592 -0.052502 0.260164 -0.127724 0.0994625 -0.179147 -0.0849838 -0.305487 -0.0903291 -0.117192 -0.0502247 0.10643 0.0794018 -0.133338 0.224206 -0.26862 -0.0316212 -0.0443591 0.867391 0.040662 -0.0348638 -0.313857 -0.0406456 -0.0416103 -0.218919 -0.0475532 -0.10822 0.139591 -0.0487319 0.0837281 -0.0472672 -0.152195 -0.223404 -0.033034 -0.0220139 -0.00284414 0.26298 0.494569 -0.147217 -0.055308 -0.121882 -0.09545 -0.145069 0.0361904 -0.407316 -0.0666349 -0.292721 -0.0781315 -0.183818 -0.069437 -0.146184 -0.0649415 -0.0289984 -0.11256 -0.0821026 -0.232631 0.141731 -0.0913345 -0.0925003 -0.322081 -0.189029 0.0332439 -0.0760825 -0.0126005 -0.597623 -0.0343079 -0.0403926 -0.0387399 -0.0773149 -0.0181913 0.0586792 -0.037779 -0.0364615 -0.127597 0.268922 0.306676 -0.0386283 0.0208795 -0.266018 0.0923704 -0.230294 0.542478 0.0928293 -0.46564 0.294315 0.134814 -0.544868 0.483355 -0.197814 0.0543029 -0.291435 0.156632 -0.027305 0.440828 0.607223 -0.107605 -0.157922 -0.399563 -0.432057 0.500091 0.0310837 -0.168955 1.14965 0.704863 0.580898 0.329786 0.0358188 0.490489 -0.170851 -0.418781 -0.107203 0.466174 -0.168153 -0.718447 -0.528609 -0.287259 -1.02218 -0.026915 -0.186915 0.309521 -0.170964 -0.0881929 -0.0314816 -0.191271 -0.109646 -0.403924 0.0656393 -0.301035 -0.025948 -0.12536 -0.368275 -0.0461956 0.207561 0.118544 -0.167197 -0.157471 -0.0819436 -0.287919 -0.244085 -0.177335 -0.0686515 -0.0882501 -0.307107 0.0201132 -0.199059 -0.0500144 0.0816815 -0.236877 0.00146327 0.03588 -0.205667 0.0595755 0.136206 0.0375651 0.0312281 -0.432563 0.120517 -0.199052 -0.0573986 0.0410504 -0.265132 0.115512 -0.0741922 0.192669 -0.00590139 -0.0563837 0.0403503 0.0249337 -0.107459 -0.0843778 -0.0236033 0.165137 -0.193684 -0.0498914 0.0483046 -0.225539 0.0115527 -0.0639074 -0.163491 0.0373656 -0.143904 -0.0871076 -0.0426884 -0.187098 0.0864654 -0.336574 0.0457596 0.330898 -0.27452 -0.155975 -0.0873087 -0.166783 0.40001 -0.352968 -0.0197089 -0.0190554 -0.255965 -0.163331 -0.239909 0.126752 0.129105 -0.0535053 0.00639564 -0.0190711 -0.0830763 -0.0677021 -0.183837 0.202916 0.344239 0.204113 -0.0218952 0.0252583 -0.141872 -0.0990745 -0.19722 0.418088 -0.624587 -0.00223448 -0.145075 -0.0193074 0.367796 -0.0345172 -0.0219512 0.104001 -0.186851 -0.185538 0.0269338 0.0223021 0.0374362 0.418096 0.67769 -0.233844 -0.130085 -0.117694 0.253211 0.166868 -0.296429 -0.26619 0.551157 -0.39539 -0.482243 -0.344404 -0.0314244 0.0522179 -0.490171 -0.0405578 -0.312197 0.0219762 0.177184 0.250089 0.00812809 -0.0883866 0.813322 -0.172477 0.690983 -0.102908 0.209172 -1.12239 0.531329 1.056 0.135976 -0.119124 0.572178 -0.430061 0.18064 -0.223678 -0.0650444 0.049293 -0.0474227 -0.0296558 0.0720588 0.189859 0.0919584 -0.178904 -0.283009 0.0240745 -0.203317 -0.113016 -0.176545 -0.0107706 0.116907 0.202479 -0.287502 -0.127711 -0.0451316 -0.149364 -0.0285577 0.00719103 -0.0947154 -0.206209 0.28183 -0.457558 -0.16463 1.27601 -0.21664 0.558734 0.174463 -0.048794 -0.0787207 0.104721 0.0887248 0.0407015 0.0184202 -0.0485282 -0.092029 0.201026 -0.0252414 0.242107 -0.105259 -0.0326457 -0.146302 0.12889 0.0706077 -0.106647 -0.0635323 -0.157402 -0.028495 0.0722228 -0.486836 -0.123619 -0.308311 -0.0451009 -0.0117995 0.186165 0.0101042 -0.0935897 -0.0170761 -0.253231 -0.00869096 0.190091 -0.0104252 0.154694 -0.0924865 0.0396552 -0.247888 -0.0198099 -0.107976 0.0700691 -0.413022 -0.0157665 0.194491 -0.150152 -0.0209909 1.05684 -0.428669 -0.25423 -0.0712747 0.0189118 -0.0147402 0.129458 -0.0688537 0.00517498 -0.0615457 -0.025711 -0.159469 -0.123743 0.190632 0.307968 -0.040137 -0.274696 0.0477007 -0.0650063 -0.00829984 -0.093297 -0.00315252 -0.0785879 0.00357644 -0.0131646 -0.199446 -0.0573463 -0.186116 -0.0669401 -0.110546 -0.132374 -0.0360905 -0.0593691 0.156794 0.0228925 0.283859 -0.345472 0.0990747 0.782965 -0.344842 -0.369614 -0.180887 -0.342521 1.14822 0.350865 -0.364212 0.110961 0.123658 0.309657 -0.213037 -0.0318224 0.27285 0.223598 -0.224134 0.507581 -0.535634 0.0190976 0.374817 0.192361 0.527561 1.02669 -0.0864713 -0.574743 -0.478026 -0.122631 0.288611 -0.743413 0.45434 0.629531 -0.0631405 -0.141411 0.0123797 0.176732 0.244398 -0.0573608 -0.173664 0.0275395 -0.121449 0.0949006 -0.293226 -0.117922 0.133687 -0.019085 -0.0306873 -0.0399473 -0.251869 -0.306965 -0.0737551 0.0308393 -0.0403464 -0.36161 -0.138067 -0.165056 -0.294521 0.293987 0.048527 -0.201979 0.100902 -0.037163 -0.267091 0.100588 -0.171341 -0.0006391 -0.183095 -0.305852 -0.0884214 0.0774373 0.235046 0.224017 0.741491 -0.326828 0.14601 0.159701 -0.0117132 -0.173762 0.288039 -0.171237 -0.266498 0.151876 -0.2866 0.103596 0.500171 0.342817 0.334323 0.186733 -0.438781 0.0529797 -0.201688 0.317968 1.00879 0.620272 0.711178 0.0203644 0.219227 0.134051 0.361139 0.0236686 0.232144 0.908833 -0.746009 -0.246644 -0.12397 -0.104285 0.184549 -0.283131 0.218413 0.129091 -0.056144 0.0166083 0.190606 0.103915 -0.00754999 0.346712 -0.0957249 0.0132858 -0.00956343 0.155866 -0.15365 0.0132758 -0.320167 0.162437 -0.0373156 -0.147697 0.0111444 -0.193852 -0.397781 0.735563 0.0486946 -0.0274882 -0.00768069 -0.0290173 -0.0705501 0.0141868 0.0651474 0.0659942 -0.309426 0.325056 -0.173308 -0.276805 0.110476 -0.268701 0.455748 0.0944916 -0.33375 -0.294192 -0.0268006 -0.0884635 -0.149489 0.0288001 -0.319669 0.130891 0.0557982 -0.000507203 0.0886696 -0.052561 0.066937 0.302987 -0.0144736 -0.256336 0.0414307 -0.0323429 0.291871 -0.18082 -0.0974376 -0.214024 -0.191522 0.158553 -0.209012 -0.0172747 -0.0136746 -0.128315 0.354577 -0.311778 0.131254 -0.152983 -0.212458 0.0200172 -0.187526 -0.189753 -0.0552986 0.26049 -0.190262 -0.0114039 -0.0997039 0.231395 -0.13254 0.218912 -0.294974 0.216583 0.00515058 -0.0972116 -0.526033 -0.182462 -0.241274 0.272661 0.223224 0.116235 -0.00837242 -0.265729 0.0760934 0.0703207 -0.273549 0.120904 0.327418 -0.0455409 -0.148715 0.00231364 -0.188717 0.0476793 0.201928 -0.131318 -0.00758193 0.0809433 0.446396 0.230504 0.148849 -0.0765661 -0.143413 -0.212193 -0.286283 -0.164307 -0.273406 -0.182501 -0.155092 -0.205081 -0.24003 -0.260031 -0.268064 -0.139525 -0.171131 -0.0868546 -0.193925 -0.174668 -0.178047 -0.270335 -0.196567 -0.16955 -0.191306 -0.146704 -0.0504526 -0.0909327 -0.209979 -0.249391 -0.622141 -0.149936 -0.183992 -0.111067 -0.298549 -0.115158 -0.160122 -0.171983 -0.143902 -0.307644 